if(localStorage.getItem("DigitRecognitionNeuralNetwork") == null) localStorage.setItem("DigitRecognitionNeuralNetwork", '{"layers":[{"nodesIn":784,"nodesOut":50,"weights":[[-0.3048593125092519,-0.7026395220290036,-0.40450225557653063,0.8970205797806035,0.29966409942390676,-0.16886868823754148,0.04675628141055501,0.431957706667803,0.3858359135826725,-0.34415762737333633,-0.35857168591289856,0.49644322327180984,-0.42542067448288234,0.1607133502900365,-0.4693031506055287,-0.3075387604418439,-0.12407960218167245,0.018673629834804764,-0.4754938543248696,0.4154131441318484,0.5749084228956711,-0.1411726683504045,-0.5971059701797888,-0.366542938052896,0.2668936998513596,-0.2683658299954468,-0.8074410145052879,-0.6517861753900714,0.4507796955362422,0.8067936837581853,0.051401520386018494,0.2918944163961215,0.9791800848109778,-0.4219222655499028,0.05074201262946188,-0.7854541584543782,0.9822498434715348,-0.775089566145221,0.5773871288624796,-0.5928162689585204,-0.7838840824935369,0.18200754326721458,-0.6142643462094188,-0.04410581842401546,-1.1398112630504045,-0.9811690559022969,-0.1301666697246215,-0.5595643878012826,-0.5199122661656033,-0.6113803257207198,0.7058578242403396,0.24658861601275783,-0.4804066653108593,-0.6318408713140563,-0.5979715206500088,0.6023759330098002,-0.07185890460717499,0.5606104405645448,0.14129592502445165,-0.5739142488608371,0.16680380356495578,0.7380524124027824,-0.9684797855255965,-0.7100845640058271,-0.27381258192955094,0.10415408013625803,-0.5752830407973469,-0.4737475804386622,-0.8493990311719999,-0.5915319696961253,0.1612193286713882,0.3073926429451886,-0.5576033583762435,-0.9690639201586263,-0.40397204420229993,0.21392724286484976,-0.14425057760004314,-0.9323085002399718,-0.20989712591372675,-0.03832283380224313,0.06019774479127965,0.5737871024859561,0.4144132940290943,-0.4283472142315565,0.5435428263954837,0.008974514721402616,0.11793500020951522,-0.6480515634352129,0.011901282683285464,-0.2540704812234824,-0.14762448881805168,-0.10463392232766612,-0.4178252032261038,-0.7245519241067184,-0.48607298338228,-0.7998946152049276,-0.8288562343898592,-0.23215536796158917,-0.344821793876632,-1.2046741721807,0.19465424364324063,-0.2602441927752055,-1.1912376564401457,-0.8358799563160096,-0.9549820413007175,-0.35169220031889165,-1.149351222726439,0.2477637212565838,-0.31525624735866176,-0.06298268663548044,-0.1749936030062909,-0.5015561586817224,-0.9580276463591005,0.6012484171981451,-0.9614494591445323,-0.08547704598800224,-0.1431088808419346,0.11537872663186838,-0.011747054412546391,-0.8496921876006289,-1.4550374297688173,-0.5378998888663413,-0.5346306315401934,0.14665746685644324,0.08428949976650772,-0.8395660555150738,-0.8830020894890412,-1.063158850916765,-0.47829341586952423,0.0481929008385618,-1.1000772824948366,-0.5980742344290567,-0.44781387346109497,-0.18130610933264493,-0.8776763673771447,-0.5237622611150218,-0.3124738749197672,-0.770709033586182,-0.08890792769713353,0.08920960127903793,-0.8002201906119224,0.4213867693900721,-0.2481446198034909,0.35804582173048477,-0.9144472963853926,-1.0863276533831057,-0.31009000363156713,-0.3186195209361697,-0.47748792677497065,-1.1904748640783986,-0.65615800835664,-0.09192477310555713,-1.0130549028771316,-0.2736206247984382,-0.08516774252304474,-0.5428695825318963,-0.8445518145730058,-0.13671015693715072,-0.5935415086461757,-0.20030447891977218,-0.5811628083383206,-0.7351233681278873,-0.35228712873542783,-0.9628738480354047,-0.9096193847289462,0.06797974741854977,-0.7363522026187846,0.17788502696388891,0.3219142970275675,0.1543402874189123,-0.4844530566700034,0.3929679748822807,-0.6479539141106789,-0.516415907114887,0.38058842850867214,-1.201475623460241,-1.0385201416245164,0.7704236260499334,-0.7451075163140068,0.6590242439998694,0.9690476659782016,0.16164243340993997,0.14346180082263868,0.9756450334374113,0.4481148930256784,0.3044492865262812,0.6963893638667078,-0.07657838136509272,0.37926817605422913,0.31948353022324816,-0.8875112544744287,0.7052595129323307,-0.12576919429484182,0.886735283797331,-0.6491166154257103,0.3102740647050075,-0.3416970430987115,0.7929076010451247,-0.65677325948617,-0.7191678111727734,-0.3959745464900271,-0.027875537095692154,-0.06358549537252567,0.5859159856266192,0.7693431095345215,1.051765747597078,0.2896119146663222,1.1712280882201083,0.5352811700564468,0.8509689498687791,0.8857755400243446,0.6088786300673077,1.1050118271513714,-0.23491945181415227,0.4856296806134571,0.49032435101164906,-0.0776632873802638,0.5764670684162408,-0.3136533859979979,0.21498233989887203,0.8601668577123736,0.5441489408070702,-0.26564684201578886,-0.7291219489773454,-0.6309409033860256,-0.7650062916272966,0.5599865916484271,-0.22858559726594346,-0.3137637632457483,-0.7876479840254029,-0.10671908751442559,0.1079981656894385,0.8774253889116359,0.503373977564022,-0.23438366450094175,1.0504028904511469,0.341926625115111,1.5844801736949776,1.474658808471951,0.4284366667271383,1.4927020003240676,0.9779927592867079,1.5029415360410863,0.6728293407698575,0.5455881149507442,-0.09587806907757666,-0.2185945207957615,-0.696651149071373,-0.1368373123656112,0.8175935172150135,-0.02858320391885347,-0.7599518255032185,-0.26732262438977433,-0.6240875400894303,0.5132505679881736,0.7650760533144062,0.025588056776241794,-0.240493994974683,-0.08913279237512939,-0.20850565504890298,-0.8320021700282412,0.7632516674240521,0.7293417755419104,0.30012826864934994,0.9983983595276166,0.1802441861482828,1.1664568077497923,0.41215587971331463,0.21966842589580135,0.3659016748984157,0.7637216006249851,0.20460430862521028,1.2303840346019672,0.9111516824155556,-0.024597483712338927,-0.5775949295387021,-0.3909713935173417,-0.36141348370831017,-0.6044614002435108,0.9380442042034585,0.8138738150668585,0.5803489233645684,-0.42845115570067877,0.06084102045174088,0.424587741930983,-0.9780348777413481,-0.6420856932202695,-0.02188087338325786,0.5042391088667526,0.4450432250769334,-0.157457355080635,0.822865803728166,-0.5283150893462532,0.8734184970381256,-0.5251569084531238,0.5259059984127961,-0.4378575873414554,0.9703543361611693,0.38301655958777536,0.7019982460679296,1.2334176704957278,0.7109743966146589,0.7444947013054323,-0.6445936682648109,-0.823404932546774,0.15610953102675498,0.08773495076459634,0.49838558065841737,-0.7450245026086493,0.10360767391122426,-0.22071054453099676,0.8857649320238311,-0.8240060363920954,0.3441010328775456,0.04950014854711041,0.4004536664090788,0.04118392377630683,0.0713672674937577,1.0075369072226137,0.08903030461466885,0.18470989069586088,-0.019026920111686454,0.8940778337524428,0.2605018588911878,0.03136211872126189,-0.2679141084781605,0.48624890421451133,0.5301787699995157,-0.5080421363198662,0.5767187386939443,0.6879161021022187,0.2823545129336638,0.3233959371407136,0.0930296894028512,-0.6967957822846467,-0.02562202347077132,-0.237846810593704,0.26975216844334005,-0.22311050120154916,0.09223887330310805,-0.8787002523729996,0.39508751879361076,-0.08204768872378537,-0.9820739472520655,0.008266482740622154,-0.14140859208847775,1.1837112535337195,-0.15036600308257067,-0.8861640877992992,1.0134626742378345,-0.3110249784897425,-0.19442526691722348,-0.846848455461528,-0.9222661217545001,0.24219642131498004,-0.28743938788581663,-0.8848346712478466,-0.5613418222767812,-0.21752506584328224,-0.19562214900141633,0.5932674951749216,0.6459251862678739,0.7063348428998225,0.39861091304350765,-0.22761175406082867,-0.15830170242505046,0.20074404370931315,0.01715963100412932,0.4185792157839099,-1.1943349060414659,-0.7759286159750737,-1.2649679937582237,-0.21134526187190025,0.00632977250608761,0.06022038443943509,-0.783617092172353,0.0880587441397031,0.15752607505928026,-0.298834456806536,-0.7811585803031911,0.09575006957579331,0.3991446408911213,0.3018385718706238,0.10783552515292227,0.46912940296613787,-0.6259100107911644,-0.4045283771351294,-0.24691976475049687,-0.5748842583115599,-0.36937810459470966,-0.2742586571822442,-0.6783117743042434,0.08701022966512191,-0.46544493683947935,-0.4062991779474832,0.3174893132080395,0.06898760674231744,0.15220205329365719,-0.6751971321091738,-0.6175040523466445,-0.21716395667339425,-0.2747216413537659,-0.4034530939537503,0.20634913945076547,0.2508664325403097,-0.5418403720819376,-0.30961811989217647,0.6469232764806212,-0.7219377983716572,0.13324239791368453,-0.9948496189069038,-0.8390819668243438,-0.1424073691667942,0.3323998555116616,-0.0683774122537045,-0.7595808539270468,-0.20722192294700265,0.572178965630273,0.12210090189760377,0.6765298615177504,-0.26036816573239885,-0.07154794618303542,-0.09598167798932955,-1.1302450428823145,0.4693526730664556,-0.4319545519926179,-1.3098917652180837,0.21938052057306384,-1.1571398989166666,-0.7051226667306114,0.23527610783049785,-0.6269733529768641,0.27118887191978436,-0.036568113609632,0.8698779234962984,0.13451419648380228,-0.520052481353022,0.30234198568381004,-0.5977065440509907,0.01774726680712542,-0.7464442184119298,0.4069597204658812,-0.41589779316558756,-0.8494815553614404,0.05893812718803705,-0.08153598228303949,0.006978087808301925,-0.12837082034517275,-0.5101981680087467,-0.044259561354266654,0.453185216485065,0.1421996070043882,-0.7823882308090809,-1.2282801189725605,-0.2924702991654502,-0.47172582038539546,-0.2980214536304181,-0.7449410359904882,-0.9182023433421589,0.4360728589125331,-0.7951702959334478,0.5161041541105654,-0.5640106218757676,-0.500475283801437,-0.055694366266923104,-1.1578716690559454,-0.12361495101050128,-0.9494703462683621,-0.5418030298099725,-0.7199812109528819,0.7311536849756557,0.4164272006961658,-0.43313428643110674,-0.49307623220948493,-0.6319646021856129,-0.26741746636963915,0.2412264533496019,0.9728382284932519,0.09417217588470396,0.31854092101094167,-0.11682012952315907,0.6564154126843207,-0.3469916466675646,0.13983832023042267,-0.006956108058925904,0.5990635004493646,-0.07998791428352145,0.784288190864269,-0.40325552528881714,0.23331114697712615,-0.20924638853227062,0.011142112570317735,-0.05961866865287813,0.3199830965085876,-0.9496466706076812,-1.3197588115673626,0.18318106698059447,-0.37713512802026056,-0.29944312121388456,-0.5266391325596345,0.7404952058742396,-0.413790484276962,-0.8050457640015177,-0.5060315445026403,-0.3473805352635458,0.4651718623020348,0.6844537947939835,0.47861393212086467,-0.5700529207318208,-0.47876828626089385,-0.04156335347045902,0.841382854072178,-0.3691986438724211,-0.10788038168417911,0.36623229945633773,-0.05127850866649788,0.9403424265267296,-0.414946656347515,-0.2210965785308635,0.14296151764462595,0.3459133649561546,-1.0857830835649667,-1.1371315608603665,0.10396936995118133,0.4397555801560752,-0.6070566889760769,-0.1544225786082184,0.47666772618544134,-0.08696763974484426,1.0082102227125433,-0.5108268796229315,0.4283548158790369,-0.5010291313060333,-0.4023387497485454,0.8445142559433729,0.2047115347549857,-0.15170414430471255,1.050000471533188,0.3024395267328904,0.20728260044202357,-0.060716039378879,0.9222071872684205,-0.08866648749395456,-0.25136258755224955,-0.35205860019789154,-0.6130201670116163,0.6729346070611311,-0.5516489323769433,0.04687000003671118,0.026825064347695392,0.110046922212153,-0.5809155319042819,-0.44489666306191245,-0.6540256155100095,0.7731740445085316,-0.06727158574924537,0.5388887597915635,-0.731880451193232,0.1630046759443853,0.44660452695394354,0.36586432613739384,-0.8182536846815944,-0.24299443849155627,-0.16964188035339187,0.6184179945375118,-0.0323059778572363,1.0529193390258815,0.0869935424543177,0.16406401113607974,0.4494032614645127,0.5494493007082926,-0.31472448569764994,0.4452169696311236,-0.27306019719456825,0.2348798884517614,0.28018500360536364,-0.49952725121965325,-0.12007024535386374,0.4286915187448952,-0.06515853094371953,0.4362822149757957,1.160386584489704,-0.3403402676454542,0.5881410041536789,0.1772225341520697,0.03247351124286567,-0.5816651269900452,0.22425172008474945,-0.263276662198313,-0.1586418239694744,0.1869763901959877,1.0642381307141022,-0.6135318075411439,-0.4649680320907052,1.0804583379834112,0.7219456477445827,0.21141781988234495,0.24553098706795526,-0.6424001428528788,0.09664447638004384,0.006682353361205503,-0.053902916617547085,-0.025898533168679773,-0.6334479689978147,-0.32926140018744154,-0.46376739187828786,-0.13208110217009225,0.5547936962212331,-0.08210427963682386,-0.4411856754154962,-0.5130152285564347,0.6543223551544403,0.5957210443435115,-0.2734826416883516,0.5054227694494183,-0.7916514468688505,0.6735659152038485,0.6002699564965753,0.5182398650025513,0.3354834394639012,-0.2771924136808262,1.0240617623050368,-0.2687166724554436,0.787654187644097,-0.27346931565867993,0.6549732841409858,1.1167097813340499,0.8381153409930354,-0.276571347816636,0.3846398209076336,0.38241216796719335,-0.723308609176726,-0.3211682814453237,0.6716951262972097,0.8601023676235072,0.006007857041259209,-0.20779092840117205,-0.48570111204375793,0.2335260345538552,-0.49824691187188314,0.12688385451112963,0.47815172821399,-0.8141264549685723,0.51359161343344,-0.5296021796969708,0.9128409870987604,0.44010223332256354,0.7704777897140258,-0.09568652592219674,-0.18841653763238644,0.7958046153353612,-0.5721532846580883,1.4225397944252491,0.2634311537951959,1.3499393129188133,1.1873976742749843,1.4395819364046436,0.2421037189921623,0.36808376823234057,1.048352738204809,0.4978629258241539,-0.48634193659070396,-0.4523083733826536,0.36399085692993877,0.35382722356299084,0.2523400241427779,-0.09210029771021065,-0.567034244833256,-0.04584367355622816,0.19381271127064503,-0.4291581706062266,-0.8272619912836419,0.42617472503655335,-0.09779375152859064,-0.8178286705794974,0.8613106144078799,0.4565209035515937,0.8878161901397367,0.9313558710729413,0.8639404096933674,-0.29590498717503766,0.321809679178285,0.9439991156465487,0.45604942448217245,0.7536262627947352,0.3574844923321257,0.45952649435242116,-0.5338423752557924,0.5831012373195346,0.2504275513805238,-0.08868055270915892,0.4296059562573206,0.3063253346742609,0.756978649537566,-0.4906574879001352,-0.06408680297253204,0.298399085359095,-0.1522765747191855,-0.20894336821669668,-0.593547685772333,-0.0408203225403844,0.9063183240120022,0.14290867532092325,0.8673692270606627,0.15521623807091403,0.4620217587119965,0.34861560514281104,-0.11524321390311804,0.24055477283056254,0.21698913531405342,0.41776451492578753,-0.09780099170355883,0.5166629070625609,0.9069653821511912,0.4120382461391634,0.8511255219733526,0.7744333831039518,0.4442162738013437,-0.23245710636943934,0.40630000132262817,-0.20122086793498256,-0.691314584759641,-0.7290548893492419,-0.6982465576938764,-0.654122601193337,0.2821834274878466,-0.5629970687759631,-0.27121604824726153,-0.3092071494112813,-0.1740193700619684,0.0982098335799595,0.24581153966614416,-0.8142282182462656,-0.8534384711841169,-0.4381790675652326,0.8611205645140393,-0.23063390721899513,-0.528214956823134,-0.645879128498632,0.40139050055342806,0.7451395055825428,-0.4040858502458763,0.5236626904012059,0.5509186743875285,0.08494014790212741,-0.4705773707107603,-0.21921493288073796,0.5928649763001813,-0.26077966003361386,0.5123930863417807,0.310846930626128,-0.08838385954973214,-0.22385124925619784,0.5297559546201657,-0.8017700013077707,-0.1590904279953959,-0.19243820590709795,-0.8343609143445009,0.8869997372034405,-0.7644623571803051,-0.3657056713078159,0.735817070114512,-0.06265162174301872,-0.09864900590044012,-0.15760000231874147,0.8710660829094828,0.28545881760354286,0.6840915506020443,0.13823716769073421,-0.33038070995490926,0.8614232112667914,-0.18572411483804585,0.8331935889757235,-0.9026082124427367,0.7176209833968934,-0.8865301531257419,0.13571352055557326,-0.6475741702191088,-0.5209195598375111,0.23263679683990043,-0.39198272525801997,-0.801871577317915,-0.8673425736277921,-0.07870318932118321],[0.1960266116342949,-0.12150888590050633,-0.18524264556963393,-0.6181749398947161,-0.08609564185392188,0.9048438641704675,0.13693898309930327,0.25524578097500594,1.0336831819841095,-0.01799849735818681,0.0016210507695278474,0.9200511854251288,0.45006574849728714,-0.5864497882989509,-0.06987754327399762,0.3707989897859372,0.4190253922240561,0.31734220794862705,0.6242539915815467,-0.40961587596303806,0.4850820396300806,-0.37338392527327163,0.49027861090328523,-0.15242029076763286,0.8775159569840142,-0.7552602368310453,-0.08315172727620553,-0.07162059444235162,0.4594937206111995,-0.11427191843010169,-0.7423603122262822,-0.1299245478242859,-0.731159510708249,0.44687452825015994,1.0654391482902847,0.955516079731169,0.009369714869767004,0.28469693201208585,0.7858020283364514,0.5060336528982616,1.0048492774029283,0.7360701169061493,-0.5736652616879572,0.2720183762456242,-0.7826388179890095,-0.5604103007745153,0.18110549180899796,-0.31669595781047677,-0.37062240986344414,-0.11613033127877022,-0.7291050923995708,-0.48781467722528227,-0.7335149060108157,0.7957025702593115,0.8489785803112435,0.7927309489355391,0.4121241002606174,-0.6829997263537049,0.7952577884603693,0.8557112285177751,-0.005129532487215038,1.0005768929891432,0.43472079615593234,0.1912112629424508,0.8487293088774238,0.7029972925353037,0.9230928445523222,1.067104663971781,-0.2029940358685393,0.8403535882009424,-0.09101025563547055,0.9371685900611525,-0.11522163497589459,0.7122912861786304,-1.1024215352109832,-0.6764167744785132,-0.22152157725246469,0.0630626798464423,-0.6303190913220014,0.655367304570719,0.36277311531273204,0.5957935782913508,0.5444896716703795,-0.0776022813097725,-0.23821629675474662,-0.4757052422659065,-0.747604659924323,-0.03190195470858383,-0.6925185244153306,-0.44247169825883126,0.41002386125861845,0.40859391156509056,-0.22530857838890755,0.2729121721236296,0.5052734112857575,-0.6241300648193745,0.5778521585408324,-0.1766228788523617,0.005769514470216701,0.533493844560599,0.2563914780802393,0.23805161472240635,-1.17819472110065,-1.0292801241027845,0.257861240297359,-0.7892909995695573,0.14639828296665913,0.520614493970964,-0.30756258938740955,-0.41294618925702214,-0.1952102514744059,-0.03612857150228168,0.5578667263491831,0.5125477730568336,-0.184745855316612,0.7661115644904481,0.5614267146972978,-0.34771106976965727,-0.04055049271879324,0.605610071201983,0.11154537833191257,-0.33302774157058046,1.298186245944393,-0.0761579738425492,-0.052854517531728096,0.9812542688630027,0.5164831379354362,0.3839351046809131,-0.02939523897870969,-1.0674808243516338,-0.38429445098763837,-1.3425199354082296,-0.7037297567936864,-0.6609215999806626,0.5307589520747231,-0.1412916735615906,0.37859619609285355,0.3055206078823763,0.5815032492794192,0.7222244583398889,-0.1484000435375752,-0.7381815652772447,0.5441729741001692,0.6279501585950417,0.15653164735227523,-0.804784616518977,-0.3827916291594309,0.8277661052981972,1.4341081947090126,0.45677269071332466,1.369426572607117,0.9707243078872246,0.1620529552020353,0.3502969780293431,0.4027267028244023,0.9764380303093629,-0.702631365108781,-1.5773827826914497,-0.40169060527905526,-1.0338431044981642,-0.6894289871514366,0.005326185410736667,-0.20217450212227203,-0.6761049055329207,0.06910427969374594,0.3630552484717407,0.805017411110855,0.5631667430415666,-0.17378138851757957,-0.02961954635964679,-0.8064917642714677,-0.2610723678810089,-0.15338163686179607,0.036963986195628795,0.7478547375765425,-0.3223959819635335,0.0281786999549477,-0.29911485865714693,0.9594073880448208,0.8020477196080358,0.8670932064137107,1.0618019999017276,0.08330651113888396,0.9489964560771793,-0.9969175565574376,-1.381977177312921,-0.49171425075646863,-1.2222216335357396,-1.2949868421508115,-0.4058369431241123,0.20239419712476303,0.6551572763715217,-0.7755358172000925,-0.7836296524905487,0.7494000923959969,0.6023251279785083,0.5632975982568967,-0.294900991110529,-0.13481630989906784,-0.414441962167777,-0.6526470951532908,-0.36241236431674034,-0.029100405675772743,0.7699551543416521,-0.5314434820911099,-0.19168356681507323,-0.21923194657344344,-0.3120855202782198,0.2918694350873397,0.7474418523548264,0.3949221856907584,-0.15338834896313638,-2.037486618885556,-1.5357513345992944,-0.33567773186648614,-0.05628107571843302,-0.07346690973959971,-0.8974973410146894,-0.19399603088176381,-0.3595472647344183,0.5440978490737293,-0.13547777673483885,0.11298772145134121,0.3851994744594986,0.8608260118947745,-0.6875513070455599,-0.42278223539269394,0.34082581314882865,-0.22046538715875946,0.6855802163294389,0.009837004091698007,-0.9011367399639361,-0.06611222680340048,0.7848707549214712,0.5883249326166488,-0.002997786117635274,0.993537760946675,0.10289938060513051,-0.700369176543509,-0.29206579509550334,-1.5262582217849263,-0.4977107117263782,-0.5286324673671783,-0.5050228645458583,-0.20801759136026615,-0.8112138447275207,-0.3438748492991355,-0.8789593159791376,-0.6731948923582296,-0.4726001540324129,0.2438836792899514,0.19814206878865903,-0.31931390654671243,0.636708182668507,0.7104438310876112,-0.531022957894956,-0.2534668575424745,-0.9418715101265198,-0.9912663488479991,-1.1390100578908051,-0.2885233726374268,-0.23671358228137515,0.41504627229249236,-0.7634754734671091,-0.10821402029602178,-0.44331252572009733,-0.03696255057760971,-0.6198333034387281,-1.0851524217972477,-0.46623750434483985,-0.47157623196640747,0.3868680911176651,0.3591812826816936,0.7292584123682317,-0.7271713540532596,-0.010015839988969348,0.578559916982206,0.3988902462428604,0.7651868109403703,0.5224493947012384,-0.5250349556287333,0.418731019308813,0.26417829920347385,-0.3321463580983212,-0.5402152930592379,-0.16293269056834253,-0.11924431047176717,0.5652233575101171,-0.1509864640620385,-0.034623927339112424,0.0414619590495504,0.8289189765591665,0.789903390452024,0.9820166503817013,-0.6969104920184,-0.29220668187228493,-0.8708319540476561,-0.5047357305157351,-0.7254634976350093,-0.9418600367305587,0.4371776155177006,-0.4207429847430522,0.458446711451034,0.9505009269613287,0.4292588857888273,0.09351703695755095,0.5677871154169889,0.17262811405069592,0.8431292057971501,0.15683397142467953,0.12019410245304887,0.3372926134551499,0.48007104291731684,0.6757945522718116,-0.01342400618087547,0.5775778511397798,0.12765272413725615,0.5790362248726598,1.348328603178994,-0.38269740451411705,-0.3061931850535089,-0.15619936476936327,0.032205174938977066,-0.01585492770672608,-0.3769202303161522,0.42082658298798753,-0.6398366088061009,-0.748524753764747,-0.25891724314270753,0.5408270068682489,0.6983894039010029,-0.38617673596418206,-0.6748118512083278,-0.20874371739935185,0.8436818738717258,0.6506764313837221,0.9716152493243388,-0.5895720966187237,-0.6560163367471515,0.622958038438938,0.5486515030552562,0.5148292041027978,0.7075597026360804,-0.869000425911482,0.3705260255344385,-0.48096455098935664,-0.020320208623747754,-0.5094927273394837,0.1522359232229857,-0.14772390141297118,0.3538416332490214,-0.13487909387613012,-0.9791491108816283,0.0616970630113198,0.42937957166824936,0.760780236927118,-0.804403320210191,0.890657544476139,0.40073811820956484,-0.4031774301143556,0.26374755113798,0.2031493307418946,0.6907163116774749,-0.7414912849820507,0.2809919676771626,0.3077639422087686,0.8908645891795829,0.19898504635529768,1.0506461428180278,-0.3943258280718954,-0.09692178908493512,0.6705735798478352,0.5529752574878705,0.226389872432549,-0.009694291362232939,-0.7151903602856158,0.2690154788143304,0.009329615628897382,0.002522664401533798,-0.3180707292827919,0.6429023926886861,-0.9537703296624146,0.1733438263568998,0.882146030208635,0.5262761464186272,0.7278248784207709,0.7074138563616629,1.1195012250705052,0.7969162699821313,-0.8124205561958693,-0.042055223601668676,0.4653381908289007,-0.8647097896289168,0.4693343472312335,0.5248016220423541,1.090902743618005,0.9171688143133536,0.5765001085697788,0.7188593692978557,-0.5511936503764514,0.7006105348575382,-0.483238449059577,0.9727783476620617,0.30842523505944475,-0.3313839532882885,-0.7117160784373446,0.11940966857278952,-0.3258036683650263,-0.30096224020135004,-0.5440764761816764,0.7747530939901005,-0.7898294870259279,-0.37780580183013496,-0.5645858657442749,0.5755101284808348,-0.018297095548642953,0.9164197955912463,-0.7848176230416359,-0.5318515638193025,0.2691967507008536,-0.7161592578938444,0.35623730930878544,0.046814595950861564,-0.1674007302066831,0.6687449604939002,-0.5374088425915918,-0.6141335336923774,-0.8431329928862956,-0.64201386000745,-0.7068872352104291,0.07562220913605584,-0.5484707354842462,0.6619670818409855,0.20776465141644632,-0.43909182660718626,0.8912407752258399,-0.47201503222423147,-0.3279788606117693,-0.863329213170873,-0.5016963492861862,0.16237869219764411,0.40295806409438484,-0.09279676048806201,0.28208400556712493,-0.37735734195577175,-0.47718125075851353,-0.47540090154421544,-0.9312251283777929,0.48938279670466334,0.6762928825976201,-0.4476912102923543,0.19830906974700793,0.19860869534694403,0.49980844127229446,-1.0300891736959588,-0.18461854351728219,0.2875256163463635,0.21921249082651648,-0.1748584970692371,-0.2187639449722308,0.578212521503249,0.6895557038918017,0.8123307529438478,-0.33158935353335817,-0.8516096332544724,0.41596116349228274,0.3105838032236355,-0.8286393874128299,-0.7295497176530111,-0.7096289559158787,-0.5281439815294111,0.8123383815080444,-0.8733012461248897,-0.8711234462031069,0.1796077125426998,0.08032378899086466,0.018462779530838115,-0.48629052421413965,0.5486578376306401,0.7745453580385977,-0.38620115607571237,0.7997428941193819,-0.9474101310056967,-0.7896230673484166,0.21464435315617642,0.8982067292873918,-0.358037116655722,0.16619456031125582,-0.3496743586618209,0.04963344731702177,0.34991772442515506,1.0688144258964338,0.5065955219367717,0.24674532751574185,-0.565824521989757,-0.9143821844387537,0.33794064006509567,0.09748782826570292,-0.9575532528601273,-0.30918258735753473,-0.8805660655591364,0.8280663583941972,0.6526468919796846,0.06141434299410131,0.2762755005076922,0.8413929798892875,0.5048154486298806,-0.7812113865703971,0.38963777794168963,0.274096208896012,0.19051321394992063,-0.1088942213066958,-0.6200754747042673,0.43567110395124214,0.896152358321685,0.1930934178527695,0.09753818691678623,-0.292521363481926,0.06153232951883352,-0.2342695228666509,0.04482112727057454,0.21859975540183305,0.06356514414605016,-0.5393478839518814,-1.1901080686990666,0.4645812067813876,0.5971528366978525,-0.3495357012059718,-0.03440460823249625,-0.8034283409918868,-0.6626822547989364,-0.11182975967833203,0.3058656204435874,0.8093880477372731,-0.22058068228945277,0.5951238472674591,-0.5626924716693319,-0.6392270404213319,0.6980221688971326,-0.03209229272969989,-0.463220631180553,0.570660815982569,0.5129185733584134,-0.6035391377826498,0.30125801204151875,-0.4275047847908454,1.1719384630986507,1.0683008288874114,-0.5431966470114048,-0.767470030593984,0.11443588271443995,0.2728017903981415,0.07258898143724245,-0.3613029887346853,-0.457570842448428,-0.6299161385377284,-0.17925253494645843,-0.8188416876933531,0.36895349356045176,0.8526844122999467,-0.14331259712444888,-0.5319383706536729,-0.28634361848220763,-0.3408078180715722,-0.21940547955832768,-0.023860640192950745,0.7743527706917691,0.09774089589351322,-0.5241749026430701,0.10848827286300969,0.4104767101085955,0.39264822903320623,-0.7789276366988124,-0.25991138976636696,-0.5606248264899527,-0.4234727632268715,-0.11151821378916142,-0.8595729958073387,-0.9006486491502158,-0.498977483079108,-0.12344421655245524,-0.18632029236876538,-0.16508663020995828,-0.7526027364663231,0.24373473219958633,0.12961926645387448,0.6888942299627392,0.08008125628294067,-0.5338010682341642,0.43095589252937416,-0.327258165699211,0.5827775829769953,-0.04754323680345007,0.18280844241311778,-0.8411582594569822,0.3287285655072988,-0.7192791340788968,0.25536458433123366,-0.6107049963553823,-0.9054303114405604,0.5305296867216215,-0.11074115913687432,-0.8949685074785979,-0.5120088232126627,-0.06513353438731978,0.11909315285073811,-0.1203354674020581,0.2701197246511233,-0.7735821221087574,0.49033472940625933,0.47482172920742033,-0.2878196980268428,-0.578884434556258,-0.4322460372298109,0.0992678468601652,0.03570297293952374,-0.047236053234553,-0.47883209910813085,-0.19424582832923207,0.7448070604304737,0.021394665933593692,-0.35306361748647,-0.17052137518632968,0.512440222256349,-0.09246632242906673,-0.6852950944393633,-0.991038478052891,-0.8191758698938879,-0.6663968058345413,-0.9274350339921025,-0.036588496867970305,-0.25940589761200533,-0.6900158866332785,-0.6082324065119997,-0.3364491115935741,-0.427361697946014,-1.0890751063698612,0.2504913480678328,-0.25306780357367253,0.273582586088197,0.7721519001047161,0.13830375650013416,0.2672912222896885,-0.827431796350855,0.43049722842581045,-0.8920403737060427,-0.4803452933668994,-0.2926261211126974,0.7437345094798474,0.4715096999307937,-0.801175476722423,-0.6444798524483325,-1.3872022131964759,-0.17590325003305263,-0.8413016041326705,-0.20230734754340085,0.03885852530024178,-0.22197343360225247,0.28183200561050115,-0.7589946043267483,0.003912684797315851,-0.8351281040841683,-0.1727336851601257,0.6646231324930137,-0.23495808459174894,0.7480277255348595,0.5750864884358203,0.25655572635149815,0.585976379885061,0.6227711327374728,0.21218578219971915,0.3234995956406682,0.4350539823515706,0.9136821114066975,0.5869878669059474,-0.01690327903975707,0.17432915867074344,-0.14724587811212494,-1.135328602993555,-0.9776106631750476,-0.5859915262234293,-0.1936320132179276,-0.6003583506885924,0.29178769558431045,-0.2828529962382643,-0.8714875263183881,-0.4654647848736684,0.07844887813242084,-1.144373985247323,0.1266397369418712,0.6213612228607511,0.2529346805114081,-0.8394570968071934,0.904985680146277,0.3977794110768671,-0.37834454951733554,-0.8191876128406828,-0.3984365129759661,-0.5161817604702448,0.8812362449234561,-0.4390242743843041,0.717541719986253,-0.9122807670664741,-0.6716580500636171,0.475369285404084,-0.9580213909937765,-0.9853961668087658,-0.0013129852239752043,-1.3228398169382471,-1.1587521286676172,-1.2160885768308727,0.12489901523531907,0.19222545326016777,-0.8229828554608439,-0.9953617174761723,0.5581661586290068,-0.975059485302253,0.3875827658950472,0.7314532575731914,0.8481312034943275,0.1341127231608976,-0.07601688576118065,-0.11761090004448953,0.686592234169035,-0.33972618338264793,-0.354390408502649,0.43263630791682395,-0.3289841124756222,0.6128101252406174,0.9420911910454156,0.7608084973235418,-0.16399229833041024,0.351612141491947,0.21590712423815267,0.5125914142769626,0.3675572441628546,0.05495760696583556,-0.19580288341033994,-0.715469116495154,-0.7982908507070524,-0.633582081419318,-0.6743798003371999,-0.06619184675521451,0.5435717535937475,0.8721923782962537,0.34907449944721375,-0.5020966091503875,0.570096459734626,0.6017643625677547,-0.4397064716674392,-0.40408050274507523,0.2690248317687275,0.43152444222515624,0.832702145489585,0.8998257965114059,-0.1691876710907669,-0.41518499054435304,0.04922361381203495,-0.33242901192546487,-0.24870838620383007,0.4127027315741,0.8383665354264291,-0.4790616686594086,-0.5926369765423197,0.12257512695861705,0.9752446925634628,-0.20581302017193534,1.055063182433365,0.9350535855640415,-0.35340531702858774,0.035817281384181936,0.12423680148841156,0.15332580086248784,0.14313344398298664,0.3327707924401883,-0.6863985799820642,0.5309865032287078,0.43913831014373506,-0.10976250344653991,0.6830194344471506,0.8543316925947037,-0.19789579122600315,-0.7774191662572633,-0.5768913399851433],[0.13349790251406415,0.8267674907578229,0.4008542604458817,-0.41597597200480985,-0.8844311144500596,0.5027302199613676,0.12102463808710379,0.733899283307262,-0.5660832221943075,0.5400486057457692,-0.38330883141543765,-0.6295179065011358,-0.7171049636975084,-0.4794087702734008,0.5541688400132532,0.6441024854277058,-1.0026306157151528,-0.11326510734777928,0.4151338111192053,-0.45580920980578105,0.7823490993234826,0.4109595502841834,0.06258754967774442,-0.38459577672165013,-0.6613542837475787,-0.35638779832857126,0.6394619228240604,-0.08075662488190476,-0.0820377617349497,0.06933978766722702,-0.10902763729717302,-0.8808339343337634,0.6160132356989408,0.4650498453656023,0.23636466083426877,-0.3777005043538939,-0.22627953384159064,-0.23196520955307506,0.11468550286990001,-0.5505694235509316,0.34058499488344546,-0.6544378264049896,-0.7351795708994188,-0.23417201770968424,-0.2209261330772432,-0.23460135340777472,-0.6783143851611318,-0.9414963275076065,-0.5666243756792982,-0.2891459176366128,-0.14720892258797197,-0.157767940734989,-0.7032692196100021,-0.7234399802154098,0.2116043270363152,-0.37719244328972895,-0.8087868263588637,0.303573279019799,0.8261202623980535,0.9238380571612296,-0.48393921589734673,0.8724078584879191,-0.7717005369208974,-0.5429132641853494,-0.2848067447379794,0.6522660822434819,0.3886394862984121,-1.011845329715485,-0.283196632695335,-0.4587802025459744,0.5695505583744,-0.020294367782911354,0.2743825038296935,-0.028562162236189754,0.05581022085314617,-0.7508477131015009,0.576152972833792,0.034267873834897995,-0.7047860282242713,0.4834054217195428,0.021111335458384697,0.7733194868343679,0.6764443781210393,0.7429141310319236,-0.15172793593327302,0.8081820337617639,0.6091120683296233,-0.7126813757488931,0.1957224394424811,-0.005437745686874112,-0.9763589052761287,0.567880065966331,-0.7314121977170992,-0.6322313960228092,-0.9534292401847785,-0.47515599138395964,-1.2372109241892144,-1.075420346535569,0.01313869528639044,-0.11203338339337703,-0.33593952848884434,-1.0108106973032884,-0.4721342706636132,0.527574620788021,0.20333133706682002,-0.576201428634949,0.0972923166930254,-0.07561676242978681,0.06557741969556918,0.23116513720598708,-0.2810545967193193,-0.2166033361147542,0.07417256755946293,-0.721163467146619,0.6372220396026649,-0.4715252529079062,0.34388063848525574,-0.4151815528774339,0.6745100388340008,0.4970411717841861,-0.07404199109207746,0.29199356742560284,-0.44715612995678056,0.25795362299540814,-0.2632034484323815,-0.7931165364107657,0.5097348339423441,0.12763466410532054,-0.5970934327301686,-0.3733253566254189,-0.6467821874194591,-0.25575511354688674,0.10870782155799465,0.8757480437084991,-0.5931234006594246,-0.8247401449559653,-0.6682548209049649,-0.27517907124411745,0.7149760415685122,0.31063713241119556,0.7359680718737591,0.11638714134962069,0.6774083898215273,0.4385262044096424,0.18983415584594265,-0.05380435708849354,0.31978972673357914,-0.9609372006059721,0.11708980357846516,-0.20033586108025833,-0.5011741630859202,0.025735538920147537,-0.4169176117844278,0.27763220879168665,-0.4480580827672658,-0.657310747218435,0.7463906358319949,-0.6952171718529866,-0.04291279778541595,-0.5483212850457265,0.8518887429639037,-0.24648977935299216,0.28363320344669735,-0.04506335394573541,-0.6454612493068571,-0.17776019547460858,0.927383259606976,0.1742299540321102,0.40759398329632646,-0.18382371605779055,0.06826419614228846,-0.15287302401255176,-0.763970527018468,-0.6824489814424277,-0.7588582432117229,0.7626772533867162,-0.729332560240729,-1.0234700692270977,-0.16347701039959786,-1.1740853006734027,-0.13833028234501024,0.9609434875963483,0.15353649866612143,0.15800647264693993,0.7027070272696448,0.503393203305947,-0.44442957061067706,-0.5754521922367337,-0.5932966856688819,0.13946411522914398,0.7133640857825064,0.8915979886625467,-0.7578407257545553,-0.08737110093273083,0.8808240808178601,0.6305786290917972,0.7530772983106733,0.2524733399674594,0.15916617659209306,0.6580853193551823,0.2325783148798385,0.4788433207261375,-0.25340020038227146,-0.8724408765896084,-1.0723285592673328,0.13569480910481402,0.02783289691960097,-0.2798977349114576,0.39509820558188136,1.0369670796068258,0.5316454193702757,0.6635126662306297,0.021925069275967657,0.027530506885529743,0.681758683624325,-0.42309427373306296,0.6957950183619488,-0.584354610760723,-0.5817481645084595,-0.28258328028089547,-0.0021702614533965193,0.48907928175680804,-0.31000068543220366,-0.5407611660283062,0.7158407491728747,0.3109715464698689,0.3503135292654017,-0.1337176176858033,-0.7121027184839392,0.6298646217182918,-0.10123212492506342,0.039522621112914866,0.5323732267972382,-0.9182371560964546,0.2780638725198454,0.7747940802177449,-0.19948597627317696,0.8615335833712778,1.1587312370446263,0.937875536880584,-0.06773806914543902,-0.4223106790690967,0.09044218826483152,1.019145704064263,0.04162223410392463,-0.4362400117295813,0.1765048932827386,-0.9966728553024723,0.6694837033180651,-0.6191656915186627,0.6784729234299532,0.2096515658355094,-0.4020542933043292,0.8197455214806275,-0.1090040677256027,-0.5531795563427314,0.15447598467591578,0.2502912310642666,-0.09827507370283771,-0.5167741206672575,0.5363399011216403,-0.2118815285734032,0.13142118402479855,0.6230708774902656,-0.8277258384652654,0.6643438093019188,0.16975818897676706,0.5150739560534212,-0.34935878319681674,-0.7772026757774468,-0.4815894232443133,0.17810873858300663,0.07437992284856335,0.9034202709685445,-0.47444435602057966,-0.8838124798839241,-0.5755122435576997,-0.6104294961274797,-0.04869589223238192,-0.20463584259324324,-0.3405651856946538,0.00653210938089122,-0.3333868228632764,0.7459283973883433,-1.2198761908531321,0.4512378761663584,-0.4438938458397378,0.260289293244733,0.44625839888615926,0.12405727643049413,0.3151914915339218,0.643014039036034,0.017355569643134297,-0.7443387722587027,0.964647552161168,-0.6442038979313999,0.3455444070967285,-1.1034382678400474,-0.22744485210988583,-0.36563591354711206,0.7308238314174811,-0.060012037250508535,-0.9716006127521178,-0.49270537728889513,-0.19907176700826462,0.8216448942705055,-0.4749169500856685,-0.6267024646400778,-0.8563798077999971,0.3094256006291612,-0.9089420186977398,0.11320441018577526,-1.1560664652781132,0.36594123528863554,-0.018607454435457634,-0.9292831903944101,0.25111261950231506,-0.288489792737607,0.3817281104090143,0.796662024143855,0.029276660441913783,0.6318797350285209,-0.7011342721727913,-0.023689589475066438,-0.16711691232244613,-0.26629188363288947,-0.3736876416145356,-0.45117298250536525,-0.08588251416339356,0.1759518774714142,-0.7568925239966188,-0.18016087447165888,-0.16478877580574378,0.48177566912407843,-0.37833955202665026,0.25609266790164925,0.6290933217253434,-0.03936989414809119,0.24465821979979757,-0.4436670651023073,0.254568741068805,-0.46601957090250795,0.7325644985409349,-0.21578778703155743,0.7695072545523909,0.317311315972354,-0.4917178552901299,-0.784356330466146,0.27256462880451265,-0.6395231601019722,0.14878229100087545,-0.2111570673419981,0.255267647783898,-0.10892473788844091,0.6790366940010084,0.9755740705391963,0.4368320169790263,0.24959907081130522,-0.890027214007589,-0.13481198527365618,0.36057023265756555,-0.7901046214276247,0.780667785356049,0.446819689694449,0.498803282461261,-0.19299301827117615,-1.0547776110644222,-0.632120191955492,0.31895244694384994,0.31212984111583664,-0.8624941992590011,-0.5940843028584265,-0.3971801081263524,0.7966581556267687,0.2199786108063187,-1.250321874055166,-0.8900145104229742,-0.5810641431477697,0.5010640115101767,0.20544749210238777,-0.19008826700527948,-0.4990853428187684,-0.6382961801844365,0.940862654984146,-0.18361158298558863,0.47608162879410576,-0.2961085268362957,-0.6850173638814414,-1.0136162600370804,0.17364500582931816,-0.06700712697276594,-0.4363075561943026,0.671093848576362,-0.28568446551804383,-0.8282324240298072,-0.43566046278909587,0.5080497944052499,-1.1171321480918435,0.33410572856548865,-0.6560500194193416,0.3433951403801442,-0.8957147049703246,-1.211741563704323,-0.31608778420450945,0.366494097224384,-0.05244424668083626,0.49410341991298923,0.3792557985704614,-0.6236509741084056,-0.49387537022830097,0.5016314148365493,0.4205694825439413,-0.05942927991391037,-0.11244154938539627,-0.5126005147790887,-0.21982303237306805,0.6979904305831934,0.4932740116210194,0.6072317687483584,0.2030543861191385,-0.4786943071330386,-0.328986212167192,-0.19470560365531,0.33067900003748457,0.5582844104505003,0.4849676501487904,0.4382487621220845,-0.1722199178733584,-0.3908347697479605,-1.045453605500346,-0.31923216647210767,0.6115389123172795,-0.5077047975058755,1.0296958348195004,1.0313811708184446,0.8481512574617385,-0.24862431509021937,0.019898114486599124,0.3339957984902917,-1.231165127619072,-0.9463277094421778,-0.9747894936205563,-0.3617159876968037,-0.9059659138219693,0.211506852636099,-0.22197299414704963,-0.8964411549114166,0.5250745522562299,-0.9550357079965374,-0.06718592288207083,-0.08260084666065243,0.05487800207361484,-0.35268163928620794,-0.6099272746837504,-1.3589856606140895,-1.0398751785027966,-1.5172668316964537,-0.31864824534982483,0.2639202004570382,0.17337658879087667,0.21891558633323913,1.180107784646811,0.7365708770870049,-0.5673453014443385,0.9135399205231626,0.05482464362608464,-0.5289711056756511,0.018544562006183898,0.2513785938762533,-0.5177622796734528,-0.5383766884040638,0.2619002453640896,-0.34315231976977645,-0.560079012340042,-0.43025174164093527,-0.3356446696549053,-0.12897426619414812,-0.8703267436857295,0.8136262712409976,-0.6746698828095214,-0.8529298268093894,0.21052794344855577,-0.38738362489084605,-1.6030758666165292,-1.6289467413807825,0.11093977211089678,-1.031918258733059,-0.5530311425109651,0.8106621174712627,0.3880986787619064,0.5936290430417043,0.1363177614248889,0.35527147939699705,0.34704658785058584,0.4188697310498601,-1.3141028670523043,0.5027227399096662,0.2520589827066634,-0.8340701281261663,1.038925270148504,-0.49347126507471356,0.012789239774564965,0.2230143239882882,-0.6360744497149384,-0.09274133251234272,-0.723537457658575,-0.402568178010072,0.4475381260844839,-0.6821463309305557,-0.006905116018220184,-0.25184712732351333,-0.6679918108958319,-0.8376301407247002,-0.3264375734565925,0.6576079673032775,0.04744919582170101,0.06037151740963376,0.30399851023285973,0.23148267936648523,0.48589851167833525,-0.40740229916874815,-0.24380043336746562,-0.4466021160781134,-0.8937844013091906,0.49971947092867397,-0.3310393082685186,-0.4163605532649567,0.5401767959162656,-0.6609425393072632,-0.8568726762488448,0.14062707468939178,-0.8236374682444985,-0.19851717522731233,0.1223810329808329,0.07972838875649665,-0.41068339740219106,-0.5839150619364756,-0.4084299375653306,0.38969185466241685,-0.701942941362375,0.18304418729801578,0.9119864450244832,0.9393010796217838,-0.02812672686859621,-0.1871758015513362,-0.5947757063186901,-0.0659361883261444,-0.2047829948585718,-0.33613131940355917,-0.706271635956466,0.5878292567983802,0.6381730912967455,0.9750960138109208,-0.06905195977472886,-0.22503545480856096,-0.36011403052300045,0.3974266744205147,0.4831468980700432,-0.6862164723763898,-0.5502324032388183,0.4754076275691571,0.9198429232102804,0.2235955709785597,-0.44383740152753487,-0.6396088689122047,0.6218444187303307,0.11569226653583253,0.02264663049336247,0.5983540721135133,1.0899993469914115,-0.19520075983812463,-0.23496316948659363,-0.7769529402998383,-0.6346289199931312,-0.32666582286835905,0.7879657912508252,-0.17653377446303153,-0.0898810333377359,-0.2676992797355423,-0.013121655770599955,-0.25414198589299336,-0.26054551340178567,1.1008735723223901,0.4159556001185135,-0.29506097132695164,-0.6672969432441732,0.08840614526598188,-0.6512886333992064,-0.13613527172418965,0.4773327680344704,-0.037672592412713014,0.9130113564255264,0.19944657256887496,0.747072086525902,-0.4126602636703038,-0.7431059333314942,0.383851851933559,-0.09822739940411233,0.505995186505912,-0.8266914625768026,0.3160795750179366,-0.8557039791901628,-0.9016049875245278,-0.15598721199954482,0.2627825524604381,0.37796430029242956,1.0120596268374902,0.4404135795085742,-0.22832631265629835,0.7298394929752866,0.21212279640457643,0.3478009758911018,0.9638183455512338,-0.29682996039278353,0.42785113659288343,0.753565046220272,0.7936242565384399,-0.9076499279847875,-0.7246252170180865,0.941588312327913,0.1535958114593747,-0.05776199863424484,0.7459590178255823,-0.27898747634691756,1.015971265052519,0.48438445059621876,-0.08993261680267989,0.8856815217706593,-0.32120980412853595,-0.7850829811342177,0.6790783306720467,0.7402538858894641,0.778603260950033,-0.10766762484552776,-0.4339324071308747,-0.7139164263011145,0.6872785929074553,0.96618907566133,1.0491740050137492,-0.3484126045415439,-0.3193927286864599,-0.206447436627935,0.17837791123957392,-0.636516065869185,-0.7131529176481918,-0.777739275370155,-0.8893838563496516,0.4163582239988072,-0.2510058057916364,0.549775168270689,0.6271009030125263,0.574825072867205,0.3961717746218625,-0.1201363399970956,0.18771017012741206,0.4756297928126103,0.3199546422179693,0.30095663676174983,0.13455670830686045,0.4669666804090827,-0.4594690724824675,-0.6739703262202872,0.09215733494581493,0.33505071272239156,0.7512067599116509,0.6841599810418235,0.04694126072703676,-0.5375366152145097,0.12085711447915816,0.4749870255025943,0.42411956646671134,-0.21490668831905535,-0.3587701308905504,-0.23245750153546746,-0.4467698128375085,0.3459507530386803,-0.6185621644420608,0.809097358205837,-0.6677545354406778,-0.43613665110538363,0.6084253483964609,-0.7252475140463319,0.9965509089678629,1.0080802668325444,-0.12024878871014436,0.12771558467414118,0.5070732218041386,0.6033290900487406,0.2346516362591986,-0.7351988628132906,-0.0706949327073869,-0.7810048024549108,0.13401922948086495,0.41229805761312266,0.13530725558701195,0.16566192934983612,-0.515077160581116,0.6528339366218502,-0.2553089348994286,-0.6937740847115282,-0.31146628904085305,0.6727187658481076,-0.6217311335837711,-0.3452971829278296,0.6989695761439609,0.009599699066868327,0.3199817852301607,0.935331270032469,-0.11103486031325989,-0.45964906234333275,-0.011540680221117252,0.9754057069228251,0.46933053944618225,0.4285314805106218,-0.3490279015986618,-0.6866328708861341,0.6382442417637336,0.12075885392999365,0.32177374218188937,0.7059837365320638,-0.398250677786973,0.7642328370439169,0.7518634458835826,-0.7729740610389463,-0.3977168417253597,0.00542535303605302,-0.4046388354166902,-0.6074578339809249,-0.5275996267558433,-0.5604824138277024,0.005091137972396878,0.6139297152054134,0.20269307680814302,0.028880533381161623,0.6000932777931988,-0.0349542942991355,-0.20681081516918728,-0.8588510231351997,-0.038766079426126324,0.1891796539479808,-0.3216756050410714,-0.14930886090166906,-0.6112341808787,-0.5858156492359661,-0.7818561323630531,0.6171222833558961,0.07173378338973482,-0.7846454236890775,0.7018860778404652,-0.1299529692901904,0.3397384971526352,-0.6509679207147051,0.7138137385310512,-0.1939908527920709,0.1256712084495501,0.7336453299397374,-0.7572012619763234,0.14809819165226376,-0.1864956221489774,-0.40786529868435734,-0.02548485189981982,0.5604718584568679,0.6998529243464308,0.579544588856552,-0.06765859543237157,-0.8706091164762825,0.3905967690300151,-0.2722814836986605,-0.719659235514106,-0.8930778363385656,-0.609302322110024,0.7805838585216823,-0.9334496206585361,0.6739469824461318,0.029806219013524492,-0.6960760277361207,-0.2343791834698822,-0.527686179993389,0.44585376988903863,0.3615902105980722,-0.5028215269888284,-0.15869816415368573,-0.6095256816233343,-0.5959824695997373],[0.3093269417479347,0.8328647263156753,0.549069866405076,-0.6259225706866591,0.786305775737734,0.04984691916487992,-0.29218764359911936,0.5425940541439318,-0.7815135499501135,0.005526995330686269,0.6347447465377142,-0.27066406494915457,0.11757868228964877,0.031438548226966095,0.7409585743090354,-0.5384973549814346,0.01323587535499993,1.1078082997608423,-0.3560377302377423,-0.14609664335385208,-0.20002722152903704,-0.0582995936336166,0.6730211041589905,0.5051818041755238,0.6835393450073233,0.004285276757893836,-0.13465708733219603,0.44175248155661817,0.769172942937526,-0.18103664548112994,-0.2900640319619051,0.8743480265730882,0.41038852338059223,0.8194427454232405,-0.4853692838174714,-0.3484505185232108,0.2078431750240918,0.3345042984785938,0.6254164969126045,-0.12628950954531284,0.4602452433782398,1.1796924004753782,-0.37594270988552914,0.865695923811944,0.14711037407139302,0.5419058231208941,-0.18060575465072187,0.6558919497386604,0.723995538478636,-0.7513939112809597,-0.3718131556935262,0.3712132649801927,0.7165048496400307,0.6143498780982618,0.6622356358400288,0.7261788697286001,0.6735059023482352,-0.9490264739402792,0.6021770713085617,0.05720537848847837,0.17780675304215884,-0.42579327228284974,0.06981437772519426,0.740055215819181,1.0988097719916623,0.6014174568586431,-0.5901084765597671,0.006809071678016509,1.1750767335171965,1.2196068801676547,-0.29246270183217765,0.7256691737160844,1.1290590261715834,0.21024078212765837,0.3775235989689209,0.16329243944294858,-0.5487524957571627,0.09586183057257777,-0.9245477420162262,-0.22950681616148771,0.13314997661311243,-0.36714261947649024,-0.818343908529813,0.9762062685252729,-0.2929333703843894,0.47112191307581835,0.597982003561737,0.9773425883834468,-0.7005539780581799,0.5925714638127322,0.7475863379078035,0.07852222742053107,-0.3631968825258412,0.4933454698297565,0.5437688710951774,0.407150776317539,0.5976474710308474,1.2650460208462395,-0.34266350974554616,-0.244520966682114,1.0327912745613617,-0.27674831803259253,0.023354354318951005,-0.1136610222651884,0.44689725040021444,-0.5294877963800939,0.0526386323785716,-0.43696595350637063,0.7149282768281633,-0.4592436126357165,0.22858445916884784,-0.5652043553820352,0.3635398725156799,0.7688845787964369,0.19784890273531885,0.2974744603800104,-0.3854975165219439,0.8889505858868841,-0.5786883906901011,0.38322343592512265,0.4280850603317228,-0.10457288078438526,0.3842497329127148,1.5962215496924688,0.9241377500544782,0.5548653718540998,0.13984867856185926,0.2505047034360508,0.3215822546436618,0.7630405188430248,-0.13280021221485888,0.16294811384260421,0.9271565401900852,-0.7197709098557625,-0.2680400279165666,0.09930577755665337,-0.5359081285942205,-0.8600741339353705,0.18498368428211132,-0.5072028215595573,0.7992339560087715,0.02465012379636496,0.6793481640497882,0.04674504031448412,0.9270244938211265,-0.19878128089182956,0.5257358654038433,1.2552369220390043,0.0488696629041085,0.021027204948980475,0.2836405863303631,0.5914256108443232,0.5411592418093442,-0.11773562787776032,0.43837742377161176,0.1279424970882508,-0.835192125718733,-0.31951356215866333,-0.5721422439048288,0.18976076301155864,-0.49058654574739685,0.6984331180781425,0.14298840984879455,-0.5240060045871365,0.4644566839320998,-0.8779821115843262,-0.7586960944897014,-0.3358104065760092,-0.8410348252514958,0.19897833523032307,0.7844730175042267,-0.1420596289014316,1.0495680109922363,0.13456695609040648,0.8247193745376556,0.6717805585999465,1.1978017996638466,0.5417354234459533,-0.06515631272261674,1.3644651020708232,0.2910540128107561,0.37297299583124,0.7809397313312303,0.4768634707946234,-0.5316969186806096,-0.1292689627075485,0.5060673524030891,0.5493310774875105,-0.5492608123829582,-0.33734994868127505,-0.8391129929618759,-1.4104057032141788,-0.6286834369568083,-0.27339815582125654,-0.8664485664438734,0.3109079592463545,-0.674780020796399,-0.46998553107430124,-0.7791263187793639,0.28330988881826785,-0.0884109418903365,1.0333863089422142,0.5852166334915367,-0.543654457163044,0.27679033831251654,0.1060310890603486,-0.23602979235463328,1.1848993250968367,0.715415587005241,-0.01907963949533392,-0.473011874188615,1.0237217803722973,-0.5479035511843026,0.02735607326819371,-1.0331832214771781,-0.33246878489377557,-0.46688761023858527,-0.5195645407687167,0.2681948100327743,-1.4472549970732698,-0.2737338131620653,0.15865669816593253,-0.44121374504930905,0.5358479713111731,-0.403594667758609,-0.8117472774428953,0.015601598787435342,0.41550945360610814,-0.04621576778908862,0.13647651523616258,0.4608034068756398,-0.39299166453278533,0.5916976977483106,-0.7891592502019597,-0.28404766814858445,0.49069810011656534,0.908469760643021,0.393390378541429,1.0097927787795158,0.5560160378458971,0.158643336846247,-0.3685614697691468,0.2633279246437689,0.49467274773517683,-0.6935997540418689,0.3372978580393019,0.10700641414529578,-0.901934443260244,-0.09316980928795046,-0.9188034000797095,0.636803962401551,-0.012771792627614423,-0.15485159557707115,0.15097262770407063,0.11107675509816008,-0.020579815791893507,-0.4648663308237867,-0.33366460471910075,-0.7535630377122499,0.3365789602130429,-0.4937175527556813,-0.9948463679998114,-1.3290814718737716,-1.83700885641222,-1.2152309394266967,0.9136487836555831,-0.2015033973758108,1.2851582634316487,0.7276607268696536,0.792789070781551,0.47380361580943275,1.14462126780965,-0.13779649519260054,0.7382455635102535,0.3510669332013112,0.019494329137347575,-0.06324121523209988,0.10316160936754135,-0.6125440751109757,-0.5039941512856584,-0.4226518460868367,-0.25265715553101437,0.6590861032601698,0.5019786432222141,-0.7607698605429578,-0.5826227372112456,0.45689879607643724,-0.6426552832585452,0.07478684712668798,-0.7115923447058723,-0.648983702125764,-1.4701845979800856,0.35332937060932373,0.13248607548053457,0.777290259887709,0.8177733973402507,-0.03720409710154641,0.17409213314937388,0.7311186221713118,0.6003380317612482,-0.07779010246323957,-0.8005215295815905,0.09812230792557997,0.2608678769867749,0.2327879115109787,0.49529301196642345,-0.3608909003572316,-0.4676169962790503,0.18687977186407134,-0.8600471482455142,-0.37768074960825515,-0.27537483522576145,-0.27105568865714064,-0.9383036586221126,0.29259274718199674,0.07335176786827143,-0.5939142985995486,-0.6652340901575695,-0.08190820302122727,-1.0314354268007178,-0.6759670635201697,0.05082399922877015,0.5303186825857716,0.9962918257001546,0.995982469798027,0.0934112740671114,1.0551812431675642,-0.42420206129101945,-0.042975729151402166,0.4988813861901194,0.19221085234469218,-0.16734107549533841,-1.004334378772566,-0.8975984053919326,-0.21993306699096493,0.6819291886212312,-0.3342126258688326,-0.03508842027798572,-0.7778234737334194,0.12005858130726135,-0.6232592418136262,-0.6254665513303982,0.6585585970588376,-0.4775798679208546,0.492317394823063,-0.8783395388683333,0.27870998503482447,-0.7492958098179354,-0.6811100038333208,0.5545616615205243,1.1039484643967654,0.4164774396806789,0.5701148576093406,0.18753549598764024,1.0011903815029468,-0.3641223825829414,-0.06979669887344042,0.5194078155582333,0.87469054799642,-0.16542537741150157,-0.4121089644413818,-0.07964286143987132,-0.5831754647188434,-0.9774931789473067,0.799199209406124,-0.5579639040902155,-0.3775371734275049,-0.3352184886960405,0.32901937937235826,0.8875299998613836,0.13508249562788568,-0.030519300051745787,-0.8138463865450706,-0.24957060964265465,0.16605921132980878,-0.6039054404890661,-0.01839370506240069,0.3752628187085789,-0.35674993018252776,-0.47925379245893673,0.8496787487030661,0.541229325651619,-0.7007602175694472,-0.44139235372402436,-0.3774508726075333,0.33138829510271955,0.017811121888378703,0.8244160762540392,0.8897695993676129,-0.8282015751705899,-0.3826060813768869,0.8920797964763781,-0.40476466060778515,-0.20864866079353828,0.9321475393615601,0.5375565418002332,0.9906521648534338,-0.4492144163501423,-0.4344078404081339,0.3027064197628523,-0.4124885581542046,-1.1182359033360199,-1.2556342817806134,-0.8782391993709595,0.6248112891864214,-0.16854151148014102,0.18314830511155844,0.3858268456414789,-0.27195677825927794,0.26833955472638193,0.44870592249558977,0.5501494459396651,0.8766632771025954,-0.5408660868209192,-0.4770158708397049,0.9725417759193735,-0.7456565477959737,-0.9811322342519079,0.7525756232165969,-0.325172499872963,0.5539216369843273,-0.1950959143322085,0.285140478227702,-0.30006448594245144,0.017611408697091508,0.8699315194926772,-0.45502050313479814,-0.8344728489958584,-0.9526687971964978,-0.5476294632783958,0.4412408016455943,0.20552769988040043,0.5370027412970069,0.037695646878580964,-0.8822267041739248,0.3999267220158502,0.7766668550540344,0.7169636590542834,0.614110121938428,0.7205788884199843,-0.4255466581766044,-0.2395561403535486,-0.6106102423778026,-0.4798920745565102,-0.14352042335665693,-0.2233408164917442,0.5315088414987656,0.3306354311632256,-0.44684660639623874,0.2891705035517665,1.0035593931294757,-0.5525202147766171,0.935812852575608,-0.10180742309926526,-1.331522689844808,-0.6449585228296378,-1.6081506305655338,-1.5769843284683656,0.2381948889171934,0.32104635113031543,-0.8485917296832927,-0.2756103038953297,0.5111152978474883,0.27293548844185833,-0.31180250734668546,0.2960344968233942,0.28126024124873816,-0.16279667829141078,0.5021661381264567,0.33531989301961973,0.6865598564942104,0.08034734376386808,0.8487308631834718,-0.5727153531527928,-0.7877381004932529,0.08359767598595536,0.7574365131702818,0.5757073661753072,-0.31239911098805084,-0.8296851541803101,0.11943243725414417,-1.1395689010379884,-0.5875253692065132,-0.09949448296448977,-1.472888125012662,-0.079209302665642,-0.5753495949857242,0.6987960235461262,0.1293715987056511,-0.3698726249124605,0.013289248805950914,-0.3158475363051825,0.3431049891344158,-0.35401315398901395,-0.4237372031814411,-0.2377039118741409,0.28035241367890446,0.27313151621349047,0.7748359189272322,0.4650889880554609,0.5097948652898351,-0.4099316373704005,0.6510137680667674,-0.38263153143721373,0.174845893920927,-0.5675164245177194,-0.7666897149900007,0.32900813837504655,-0.021009389008576834,0.17213926524614015,-0.2767909250244933,-1.3047217401936297,-0.7264379251707874,-0.7576279044049571,-0.6056623829923595,-0.26472811500954807,1.1708707833928216,0.08240618174793758,-0.7756673631922011,-0.3358014900037393,0.11491034087862002,0.29647774631907853,-0.15520184367394013,0.49968378744547626,-0.8048110886284868,-0.16639280148394173,0.7276985656023941,-0.8345469070075717,-0.9343048037124599,-0.22789896934755527,0.6569812252456433,0.9620251957008316,-0.6786105502433301,0.8024125283910027,0.7538962258974474,0.0064912912582942295,0.12640124182148937,-1.0960393293033694,0.5117932058486735,-0.4209938436006992,-0.27255079567103546,-0.32953968576778603,0.15654730588173732,-0.4659685387695796,-0.05816077103533854,0.3275786830095292,0.3007094994665318,-1.0378093107211903,0.7001802296352817,-0.031224957636714894,-0.6491048012609626,0.21986631147432364,0.46737270877680465,-0.7016502530711652,-0.9396492948158921,0.019250449597375166,-0.3931407239826102,0.1592609931258672,-0.02821322155691514,0.20963939132631262,0.06157384200916218,0.9800837859392486,-0.31249308238118895,0.7252302251798254,0.12445298100341991,0.4126954639217829,-0.7071897296368744,-0.6094438645154494,-0.5259498743280843,-1.0732588846051547,-0.7427007978429117,-0.25677803280654055,0.4690690800022898,-0.05056035659753339,-0.2519934178615973,0.3289269147765561,-0.7866896557754478,0.6330203961990689,0.5002856575913154,-0.5849762718233746,0.28266564506591346,-0.3583612999054603,-0.008960726647786939,-0.19385938688156443,-0.9095027494910255,0.692984992678035,0.6541424910928605,-0.049281335989248776,-0.3368198819460682,-0.7827314440080232,0.6957929154068554,0.6986767081556118,0.3312741227816464,-0.6036659541620799,0.7027604566826523,0.5792238630290865,0.12283132575488392,0.372280691122957,-0.6298458871946744,0.06322628019733917,0.22686411354099037,-0.9604048429997843,-0.4712490487601762,0.26569803268120695,-0.36573690915929574,0.252357295687916,0.3358437322642334,0.2495799660307247,0.5942008735800305,-0.8803595819922765,0.12701225949329664,0.4306957700787446,-0.4232705598994203,0.06360092072217832,-0.17313644622564955,0.4170286414776931,0.3162259280578095,-0.5068324313237556,0.13276914685322835,0.26887375447271034,-0.4751057448813224,0.8684911629502702,0.3235495167384275,-0.3438708583751867,-0.5332160734617418,0.04520312698273483,0.08384631908055236,-1.1177093853494784,-0.2636564456426833,-0.6652253464848692,0.3103782401569984,-0.7390870652064984,-0.8026668890871591,-0.7653805173898542,-0.06351980402768924,0.6035858554654313,-0.6333749501473864,-0.227925057436701,-0.586520743675191,0.4933325404254068,-0.05390651977333389,0.1782269434311856,0.3598784059368893,-0.8476829744610289,-0.18926291218347552,-0.6690705000059265,-0.004970317104700349,0.07597914038495046,0.7735911205186424,0.2526754026296372,0.994774636997538,0.5584147723850353,0.23935415694845238,0.4525107835859603,-0.6367213594856796,0.09583405268610443,-0.6419641290034986,0.2085395923417019,-0.07590720409000873,-0.037089750222381264,-0.8918498485541924,-0.27140056965955667,-0.36027690309921373,0.47633596592326954,0.6348232498790346,-0.7527008401453167,0.16535548592649504,-0.18201673402529972,0.4741515558871501,-0.06079748138625424,-0.1538496457617178,-0.7920231715453904,0.23007046103808365,-0.11254326649417717,-0.6926805504427611,-0.48761511923183143,0.19176277811451906,1.0343048918599185,0.5317277437763464,-0.26093060978812765,0.14784706119791796,-0.3828418717136379,0.06487138922657285,-0.15603248062748531,-0.4285467711968926,-0.9739095427028285,0.25537742761383087,-0.8655850147588754,0.4312178196348997,0.2350709038373579,-0.7273231970436869,-0.14206751928560377,-0.2664715311825743,0.7090148829353625,0.6234046431692183,-0.8195526612032377,0.23447788447249396,0.48247012294858294,-0.1513826198794429,-0.8275030908601618,-0.31981739205898535,-0.4782095960015457,0.9795179928661518,0.5435775974082849,-0.8215186777273428,-0.6886391442419023,0.13509097304945117,-0.49365874864215753,-0.6873413330986988,0.40704279139084176,0.33505517138066165,-0.018958191842952346,0.5656298877887717,-0.044649913065828044,0.9425009751384334,-0.41570200569727817,-0.40672917680067905,-0.28659389765485743,-0.23683669200444277,-0.06094106179658598,-0.7240262507058898,-0.6436831153010439,-0.8454096562609723,-0.6253989165847877,-0.6006458379532064,-0.3928994741997908,0.362936897318731,0.6944179031154428,-0.7701923255635141,0.648926557667356,-0.10735762811271604,0.6676462900018908,0.6374347766825558,0.8004236533516906,-0.7894015728446492,0.6855272219396129,-0.07532793715244727,0.41030123389742995,0.4946911317301261,-0.5313073196099755,0.5716993726529802,-0.403334149393429,-0.5027543130346928,-0.05935875129780345,-0.13086857650933975,-0.29831971276798275,-0.2734435416635681,-0.46588466255641786,0.6178435969996297,0.45231853860396243,-0.8159605977529919,0.5736364952856691,0.7458986877574397,-0.42395241282505886,-0.6792998276152381,-0.19508849582439872,0.4097563796324679,-0.8438651202125288,-0.4240873721098566,0.39213322452494426,0.29871617224893837,0.3345563501110169,0.633528593661985,0.09044060325483426,0.5001705629660659,0.25170977434602526,0.8240568493273669,-0.3694073697832175,-0.3002465090322758,-0.2102053881151899,0.5493702862994344,-0.7940131761916956,-0.07423386864505738,-0.11650797107738317,0.9448054169252236,-0.3109786302796135,0.2626157731737708,-0.24300772076072283,-0.6545242592992913,-1.0619714189347462,0.11965880231103158,-0.4089563558830275,-0.20885941602935965,-0.7240315465020679],[-0.678832339039697,0.36808933720626025,0.5858503041573365,-0.6586134107255593,-0.6481596264901294,0.4128790555897698,0.3312688347598229,0.25329833316989747,0.07417584455638403,-0.030930200628974797,0.8535933159806078,-0.13240422086951903,-0.2285042128372908,-0.1195679938355544,0.8721680935041619,-0.5392391591774361,-0.4903200978970724,-0.8187019907222132,-0.5146972414466355,-0.32254847774446066,0.5241457759502659,-0.06276336085108862,-0.7804952207775693,0.1571601228392529,-0.1466449574774207,0.512464210573676,0.2487487895966873,0.314919468758415,-0.5308942794932663,-0.12258275145990286,-0.06640106579665155,0.527921331690085,-0.21364016085296694,0.377761927815926,0.2591090233239506,-0.5438712356041493,0.8800907034522791,-0.2717288115821327,-0.24655230614014148,0.4123029068487759,0.9998170502547797,-0.7597040443471437,-0.09761107511052791,0.7397243138941579,0.18161002298389622,-0.06432213392256018,0.9825187322372637,0.8273906561229957,0.6534313936316827,0.8595347645797781,0.7931754463053778,0.7692500088069192,0.5299055525756254,0.055552861501316844,-0.3768063802236063,-0.4156503147049474,0.5029449888530252,-0.07599990454386303,0.6944126616982317,-0.25530420855475566,-0.15430073579066697,0.4903490008131893,-0.12088792634758466,-0.33514013328368497,-0.3074725264520029,0.7868665004670772,0.810905312853783,-0.20681736461957365,0.37873768557833387,0.5916568035431584,0.7663281690871091,-0.04161549367708941,-0.36423847655764546,0.9736220910447967,0.8554630219525974,-0.8732439574513876,-0.24937019401316862,0.5556970720905242,0.20607663138105622,0.06760475150678942,0.13288843405528952,0.19391731599669906,-0.5489285199177423,-0.453308741742055,0.23244856831771782,0.29037395637658076,0.9014893213355918,-0.7170000741809791,0.954529625642653,-0.22917450779732748,0.5434189199424087,-0.7539629760339551,0.798306622505577,0.055708127222165,-0.7240131242649421,0.21580265029513587,0.6486128599055325,0.38240730106708554,-0.5325569127810237,-0.1641979219998118,-0.7854454479785485,-0.23408080564829645,-0.24608449953416833,-0.7944601489004058,-0.5824868698213025,-0.48967102342610647,-0.7320782439393109,0.21013304634110194,-0.9039302734855899,0.05078856778204714,-0.9251242858350291,-0.8367769086663768,-0.8476983701249248,-0.25741593530537343,0.593556360114216,-0.6871174424735962,0.4652320972430663,-0.8180398815157357,0.9046727620679482,0.09818406982740915,-0.5637106546411876,0.015124904613475544,-0.2741805080997657,-0.8038144891397604,-0.2663507748917419,-0.5701760314390175,-0.22713790722795543,0.12350776342406199,0.3006398289707406,-0.029456840219276904,-0.606149593194413,-0.3997947024360193,0.13761971727322977,0.7513543852312342,0.7200685798921413,1.0395078772614066,-0.5509996649580355,-0.8917920335380901,-0.18575817648358353,0.5204466793436308,-0.7703623818559497,-0.20317935253917954,0.7698246847191013,-0.24992174199447456,-0.5340576074238734,1.0988132268768647,0.5051144335890997,0.49090808673919417,1.0447746200430457,0.3636506289806913,-0.3155060345157804,-0.8578796441358391,-0.09850770918582624,-0.7309158526097069,-0.22827621648809673,-0.2749293187695265,0.17171100090091432,0.7084257300103851,0.38389771535935857,-0.02028454707835325,0.19490124464076417,-0.5289839286216281,-0.5683347096482345,-0.09673319145670443,0.08126244099375574,-0.8927250164708261,-0.6071452209335892,-0.40936984318852054,0.07432137531864388,0.5130616072575663,0.06110148881725196,0.9318727696756024,-0.06363959950117497,-0.5931673595792369,0.4687569712439543,1.2606551877451388,1.2293794298399285,0.20696718669236944,-0.5219271789461312,0.8562149986606954,-0.3252401481768276,0.09252970890310315,0.5563158603520149,0.32539119236897246,0.058831433389260675,0.4535259881839779,-0.7236322872548894,0.6733097449821774,-0.8890067443166534,0.20730212087554495,0.818503284627572,0.6276929192076461,0.9544534909525952,-0.8087247171338723,0.6697417493984371,0.6448986504331397,0.27303056519094565,-0.02562112900848729,0.6367694541104743,0.09495238388640843,-0.0790918970410668,-0.5155929931524175,0.7987531466088601,1.1405347834065216,0.6676847339200971,1.0352618474275819,-0.6287534686375198,-0.24117079123934454,-0.04327326554318077,-0.09423552004556124,-0.15660312932300996,0.07934375407341894,-0.08748500138824676,0.13194712926864766,0.3908499109771655,0.1839547563964326,0.02473021799404158,0.8354664980154436,-0.11614437698073285,-0.7511823886728902,-0.2833462210438798,-0.3898871006648065,-0.5484701964114157,0.33031727786899,0.30002016918047225,0.010675073652107655,0.208907672082604,0.1996092123468072,-0.29562216570482625,0.8758303414529388,1.0178186703270633,0.6416082295569062,1.1323457996614708,0.8269259474575549,-0.4380785189126657,-0.7176211763622159,-0.35556632693649265,-0.9118532760981661,-0.16902965355462393,-0.48153075804768786,-0.11830314204631634,-0.20799215375508137,-0.5464069937417249,0.17003189666506072,-0.2549437556675118,1.0472251786962357,1.0825398476845236,0.0022996514896426565,0.6263732572577035,0.6764782403933189,-0.28302592357348444,-0.4212386089756884,0.1772616556918596,-0.2811068149549084,0.12049477815662694,0.5576470169642993,-0.18178837404848835,0.7990946185782019,0.6419802727458717,-0.532002363074442,-0.4953069656420385,0.489625024188084,0.09834921886318229,-0.6362118626688734,-0.6129314616440148,0.05719461182753783,-1.1356623030002515,-0.8682998217892207,0.6532582913441758,-0.26156504158757793,0.31231430969915075,-0.11922832202853116,0.26855849394978587,-0.2517298369374055,-0.8388042412031844,-0.5611731064342872,0.631218063073669,-0.09267838832497713,0.7660301217164167,0.013376335946581717,0.575012830877103,-0.7978499845569731,-0.9007465315723874,0.7434316021608526,0.9944899522726807,-0.4778337991352916,1.0960807191729585,-0.33543085418895063,-0.15864090771153902,-0.3796226779876616,0.4939801640090344,0.05474568229636692,-0.3181334314231875,0.30956323301648603,-0.19122380395375482,-0.23625341383202916,-0.8798261176578704,-0.8107619156044308,-0.10784126466395222,-1.1653054349539875,-1.1111850739121611,-0.44281871650643334,-0.06132806967765368,-0.8482761197868611,-0.047971389591704,-0.5318591955114919,-0.5280045034233201,-0.3180887709629236,0.028515999918306178,-0.6407179938914614,0.5296978095963452,0.3795828652584233,1.0046310027709542,0.3464081794461716,-0.690540778167466,0.7361358163450683,0.6753681619277149,0.17682897957610147,1.2024735842020753,-0.18663297844597346,-0.75133728581859,-0.10605101386001949,-0.36007895327457434,-0.3566394812485462,-0.16446116780820885,0.2357485093250075,-0.08882903188697712,0.3346547031207208,-0.10241884803758229,0.3723555636142329,-0.2935561713733526,0.2679349196811535,0.6641720989809395,-0.13440015376056977,-0.9926680565247484,0.2233720116828449,0.8611307180354635,0.6058026838289983,0.9976194484657148,0.7700349400990456,0.8279980767569954,1.0268511313456679,0.7538649771524488,-0.43740849420402556,0.3758372357242145,0.3238971960293902,0.9761054665815205,0.39315395566873396,0.022971343969961828,0.2754228120096798,-0.30080032003833207,-0.40042663137088114,-1.153668191559546,0.06994795262378008,-0.5701825085189932,0.3882205656050402,-0.3313549407640431,0.6660188452048132,-0.09966108297450191,0.9874592534985916,-0.885472145316896,0.6748422479695526,0.7470843856701157,0.7755205260948866,0.9187214175299052,-0.24542813675374245,-0.4651930418661277,-0.2667395447352549,0.8308236791968481,0.8509019551223658,0.31053978140652994,0.32226457689125576,-0.23167748254279524,0.09882252752120707,1.0611327508658466,0.8532206106856335,-0.1303057763400889,-0.9286833755826684,-0.22556993582997606,-0.6842634104411532,0.37095439617153636,-0.7599953768617023,0.48118210624987723,0.6220173212198121,0.47895176662794664,1.133849863277222,-0.42727875228310885,0.6351355452997155,-0.5965759442998048,0.12375756494541311,0.29378412742482857,0.448680151253353,0.07183654297050023,0.6355516266677464,-0.622655140273425,0.8391354517694662,-0.23081789536789576,0.9184523869297522,0.9011991902629972,-0.29634643102089087,-0.1584704079867129,-0.7921977055426385,0.34575786819504273,0.037658172417528675,-1.166713292326487,0.02364023876418882,-0.8109213454623305,-1.0316659165330766,0.9486622514376196,-0.4939544859440716,0.9268528727588509,0.04900886826621779,0.7082854358670484,0.8152191749074404,-0.08890664919691589,0.5747919867464354,-0.9782347823584439,0.25627842381430826,0.2700116422639098,0.8735677755787324,-0.22732185458288084,-0.19122114575842,-0.20490506946548,0.7525190616466984,-0.30111064878911514,0.855534718489036,0.5312683710334848,-0.6521972457157262,0.8853810435841054,-0.09528272965980696,-0.02068863493217797,0.16671824364100074,-0.9998129571572953,0.15456757507960509,-1.2030410160685552,0.09040427566010521,0.6067829236823316,-0.16335331782677437,0.9107539004292232,-0.1462686118541766,0.25030919135727253,-0.2706620386411936,-0.2191282894262881,-0.7102490655906154,-0.26590814838731586,0.11398086736952558,-0.46205119910200454,0.21184729111260275,-0.7150712888501144,-0.48970063037896366,-0.07217437884991013,1.1363775114330426,-0.09746813930014964,0.24236131080461748,0.9201932107920701,0.23506634111812985,0.6237410737784229,-0.20628442023063637,-0.7690818408126052,0.056801695892769025,0.5675300481478077,0.3608385765673911,0.24359237518481325,0.7246483348966873,0.6659575166965388,1.0891080558276838,0.7907661728822326,1.1589551650509988,0.6696071426865747,-0.07196670602604649,0.012838468196553729,-0.5856088259508959,-0.014921153730085172,0.10943937231424619,0.8065168440688345,0.7521185077309117,0.5166210926585868,0.7398447165569559,-0.22091752965167788,-0.13130610268288362,-0.3202483509057665,1.0168334417952254,0.8000419612132144,0.4939756758859315,-0.12633466266440432,-1.3298709802488111,-0.05420497784391629,0.8877766828160871,-0.2383111779215377,0.38091346492716804,-0.7442923507232669,0.7501061697455365,0.04113591259495253,0.27044165911193985,0.5019881388054687,0.16351543001278085,-0.0918629318269294,-0.13791611350028068,-0.6357446819381316,0.6048467543072261,0.26711990770037286,0.5058606465591208,-0.30739510950045473,-0.7049218308706462,0.9789534423106655,-0.6013901717769329,0.6583925229429476,-0.6901732730806933,-0.40550892622792845,0.8216281474132324,-0.555350135696924,0.5806177469732265,-0.8184168405277881,0.1276214499254999,-0.09998511044477955,-0.27837129156884544,-0.14670502551779122,0.5023237035308605,0.7985060055277318,0.04874877270114825,0.6748539484389727,0.10290017769070378,0.9458422533497503,0.3692911282946529,-0.2931268085970661,-0.21744573253470512,0.26738433611893253,0.8048607199228419,-0.1794033036228727,0.627153902964269,0.6094516174692354,0.48144518021263744,0.5311616735550256,-0.012589550029021112,0.9352916094331477,-0.13202046310830842,-0.5931515607937082,1.0143887990838785,0.6159587947014449,0.13503800992353257,0.3034131393296624,-0.38646048796729726,0.4938660183809665,-0.04034225413423688,0.6952400182973999,0.3473035461758251,-0.7069795367178627,0.3651168721784398,-0.18289453735133046,0.6502757967114395,0.4686045258795658,0.055497618248474725,1.0826087300438056,0.13259428301526396,0.9585295037760793,0.013221091851287227,-0.32285577185964454,-0.44681067958881926,0.9335718061659467,-0.964051832562945,-0.2775345340023742,0.7110659123971684,0.8981247969406422,0.5505847153112472,1.0930633509217402,-0.27208789703943714,0.49053136043358925,-0.5141352729314905,-0.49331029916763075,-0.2376803575606506,1.1172149290697637,0.5233621043033836,-0.025211888691903453,-0.5619790390232283,0.08443590622934723,0.5748579370059947,0.6173009351992886,0.9634169254973312,-0.061773709574121434,1.1079160713806449,-0.6770366761569171,-0.22804089170394873,0.9025693798562416,-0.45328415901899277,0.4596770481622052,0.3584726854772116,-0.8979339983547401,-0.6711546698063765,-0.6166581695875121,-0.8312191886663352,0.6632878860380012,0.6438325615653587,0.9008691883158916,0.09161932359622631,1.013893517289725,0.7435712131076713,-0.2597607845997813,-0.10403438837062516,-0.400981206003749,0.9548645193778739,0.1264816959127952,0.39649758176340266,0.7538618231880838,0.6011874390043701,0.1348036554201767,-0.14233673403241337,-0.33355951911508036,-0.4134220988209059,-0.5173662105018358,-0.17507481505801123,-0.3302348207586655,0.22734838544318162,-0.6704292385290861,-0.3038573188121719,0.08665386679280102,0.07848181457773447,0.11646926065651658,0.6839052133400791,-0.7704372621112964,-0.2521490807911567,0.522054508359533,-0.558437673686941,-0.3155472919365705,-0.06145724512626216,0.3010851969618953,0.032383271440970765,0.15173019036906504,0.4063089706917927,-0.7165060215281086,0.6991159201181584,0.10411629349580252,0.3463669361106791,0.1406344315766968,-0.8753435203875687,-0.21113528238876678,0.27718253934938714,-0.8731364947048552,-0.37811055431984036,-0.6739089676065457,0.5941378243142403,0.1132341165508894,-0.9382941778763239,-0.7502077675305435,0.425018195344795,-0.42798638315434123,-0.9043111059293832,-0.5187696047449738,0.35558575713646834,-0.06082451685886157,0.8615002730097443,0.5824422655538073,0.24182397815668855,0.9069333886776706,-0.6871311489669927,-0.4951575275368427,0.2951549262427752,-0.08875774350719011,0.31451668315331904,-0.48461039426850416,0.7136300115779319,0.03029576282554205,0.027520573826857363,0.833576263079834,-0.054611928951324024,0.7601464561912079,-0.18820824461729538,-0.5562999531531831,0.12299944570505757,-0.5279430825410859,-0.5752698047495625,0.7106720302374074,0.42309815413142565,-0.08678854475171,-0.7737505076346729,0.19338164256078172,0.09593667113153043,-0.5496049486393653,-0.6305564955094514,-0.2509631421767888,-0.20819944638480714,-0.16389934826095276,-0.7272702068836285,-0.3123133522368365,0.21640920443140704,-0.18196182916782447,0.3253927853225301,0.4675297458282278,0.18480790545350312,0.21463637580666023,-0.04364892650872632,0.29008000436146725,0.47312173984653233,0.849257683797639,0.09658490638672855,-0.29523439628111575,0.6717620854870822,-0.6335773882481905,-0.3534797640608386,0.08668720396042004,-0.19075655481245823,0.9021895238786629,-0.3732531509973238,-0.9193995206219013,-0.7905955551778477,-0.6037766875188931,-0.24813845864050418,0.2776183736573845,-0.9727893976713733,0.22369002507616068,-0.44875686809762394,-0.15881839239303117,0.3351013239648804,-0.49630590555319987,0.10278113399452231,-0.29316170030625677,-0.50104055341944,-0.053235347971002156,-0.4375171361276283,-0.2057637789798596,0.6908163483017394,0.6908311092220386,-0.42935147662605194,0.3598789478343063,-0.8208395250945856,-0.1905413950779252,0.3146712379566495,-0.23202185963502786,-0.6525245169735212,0.36007843906185977,-0.39940218186311466,-0.5484202631070435,-0.5664904168374001,-0.18018734963145747,-0.2933810122913901,0.11215480698418369,-0.5227341808965097,-0.785275901078595,-0.48851719583540437,-0.5744918471208881,-0.16879458557219543,-0.26658623172981205,-0.5323181978041333,-0.9937958011991325,0.04573999117057017,-0.7975129994103122,-0.5924127906168706,-0.45909995081384497,-0.7187076903458232,0.24620624757102316,-0.9800398010829903,0.32054310227358784,-0.8254273120749622,-0.6138847443178038,0.8816642435346642,0.959032688027944,0.24032495811932827,-0.15555973993661104,-0.809292169938541,-0.79562786114118,-0.8599176144539978,0.43578980492820757,0.47408538045006116,0.4932829878361632,0.7397426430493637,-0.05781592829921742,-0.16266785922903673,-0.5327887811367971,0.9334652291978274,0.16842688161243216,-0.6443167412493572,-0.9907215930864817,0.10454682089375796,0.9076277235986506,-0.2722052701654774,1.004811392807894,-0.033520066305747415,-0.5476816927451996,-0.6908017054411858,0.5999637048904903,-0.7891054550579565,0.7133838130092315,-0.741571723113116,0.5560780006602243,0.21006602886383746],[-0.0641285654817578,-0.2326753416143885,0.6110292345303002,-0.4510790857812053,-0.9000727637693654,0.3555075357078489,0.0013943547762525215,-0.3518610909504462,0.6300909989775132,-0.8734441894643835,-0.1725911095198839,0.5500667241424401,-0.17445253916507755,-0.40692689051389974,-0.2648644761592589,-0.236097595631087,1.0381279934348762,0.14619583430044986,0.7632512913590009,-0.2020848833412352,0.9514357676894202,-0.3825892485342271,-0.7176835341353766,0.6591412083926813,0.5383956351586585,0.44029002666242184,0.2762511103518281,0.539880273899685,-0.17086284418205697,-0.46991428326667645,0.21518016317088948,-0.48911200203231997,-0.6843440294017666,-0.1165087822442557,0.14445291458519963,0.4153648428942722,-0.27018009651865316,0.26000490164755086,0.06075232234283712,-0.5178250947847934,0.8508756482145654,0.11212730138071852,-0.1649430451459479,0.5453992558009745,0.7039133030999423,-0.6963997770309377,-0.6892079873190119,0.2593642756262504,0.28087392190177934,-0.2202675455720517,0.5486335281486205,0.2156649615321455,-0.04000349209842897,-0.5642499172618141,0.6889090348458858,0.48043851688062345,0.27131450507711613,0.6666268322187864,0.650968077097283,0.514917015995382,0.30358173995664955,0.2722467492979168,-0.07165930801770022,-0.1582504544550573,0.526222509384736,-0.82517676462723,0.9577955665931157,-0.2520033976176403,0.32797035838038624,-0.167140904499744,-0.07471212766881256,-0.7233038155215207,-0.2524203609203747,-0.318303325933649,-0.5567592419136266,0.050300433732540006,-0.590726916779096,0.2639931641957263,0.7473164195159866,0.9793305857765315,0.11148530190373984,-0.7536679727250669,-0.025028617876989026,0.9341302952649825,-0.5144575747031552,-0.4489858729423232,-0.7738126920373671,0.41899887661469015,0.711208141455497,0.5394112482848928,0.5245921351028714,-0.4441957738565692,-0.3334447966878956,-0.7465780290550078,-0.2757091989715628,0.31122360629752766,0.1913640151591136,0.4778013023068622,-0.4498188028007855,0.4555212973916144,-0.5406713552685872,0.7810478936959686,0.6310558504564986,0.5925436548230955,0.8268826835903527,0.2688641653360014,0.012562191319499373,0.5732492125005769,0.8161523805601936,-0.553700437776129,-0.18241369820957576,-0.6923470481599386,0.5481069245096218,0.7472524011159333,0.2436601172840602,-0.059781906196310186,-0.9411739030863219,0.12516551333456416,0.48739719498090417,0.5945469411945258,0.5646989064736099,0.6480849877101887,-0.39239817769675267,0.5343038892023185,-0.17502632077954972,0.5072140330517053,0.5805774612646984,-0.4017997119902424,0.00018891305231929267,-0.12169056001473787,0.4838409893206758,0.8414916856385306,0.2856354105011486,-0.3413026720896103,0.5581444152096022,-0.05655720684628688,-0.5862247272866027,-0.8658271306001999,-0.5936295706794344,-0.24037427483729384,0.06835670335805814,0.8105274502654152,0.8309138894076376,-0.8517747870550781,-0.8435155784996624,-0.7734868307975497,0.02545524272159501,0.5772584370025994,-0.5601313389305768,0.9238533585844716,-0.5186251650255727,-0.0864143456168517,0.0717201044690135,-0.44962947025601335,0.3360102816055847,0.443788523626183,-0.06856653399005501,-0.2709341115397636,-0.5463396362431345,0.3352381304343456,0.18737127201207332,1.017369985918094,0.5223034508011865,-0.13955034086333404,0.9588177568255382,-0.11884515683634136,0.35189520157317883,-0.7721656767399638,0.9319353479784221,0.13339583260528987,-0.5875789612540131,0.8647143855897977,-0.39638151565265617,0.8398946652011547,-0.7129338234713228,-0.28629019602011313,0.57405788755197,-0.2424189537166776,0.3987225553664846,0.6440709222555971,-0.13523150620466418,0.16088682823926498,-0.7860119551095105,0.32530882053726823,-0.49151947549001684,-0.6403008467126385,0.9385735266986713,0.03364011621966581,0.8452202503193369,-0.67835469865062,-0.19994854931913708,1.2493968123271455,0.04425641061267804,-0.09947684077341018,-0.5327473183358321,0.4422367693902138,-0.5395537122364902,-0.7166798167540662,0.4515077050113749,0.027904619713081887,-0.31694670799842956,0.26354923713876754,0.852888738197047,0.424891004683837,0.6287435598314011,0.7184952644301799,-0.020486522895191088,0.6684103956370985,1.42505102380301,-0.3193288132621622,0.09565865260134472,-0.3124101806565162,0.15653629312402956,-0.25642897222621697,0.1169554542909363,0.08661447356959046,-0.6024147582750329,1.1270112801605385,-0.4287916616918514,0.723892329947044,0.8817280472939665,0.11649908422906637,0.7996171614800388,-0.08640338403754358,-0.8329890081878547,-0.4606212954029712,-0.937497266650675,0.37644551523701075,0.8318958497028459,-0.9789469905572588,-0.4391981743562836,-0.39024156977206365,0.6564214783278416,0.4569871926684102,-0.15214214810282523,0.5649334475496588,0.43909394277534564,0.5335269577234265,1.011290416537024,0.1340909580675307,-0.27330092766053976,0.36303640791069125,0.754496046640763,-0.3615189806626051,-0.6401835675346339,-0.5541133824161079,0.9539813831846741,0.830089678598129,-0.42183748173418434,0.018268186711442133,0.7653925829015431,-0.9165845887498253,-0.17332147625355096,-0.7346147152614775,-0.3725622747211412,-0.0745097395155017,0.4770224049054025,-0.16306783660170662,0.21146024862612456,-0.376279920568538,0.08023268507826473,-0.6166657680241573,0.2599554962024497,-0.5948622666842788,0.32983737812438996,1.0664044637637946,0.29285510548080884,-0.0007620988864608996,0.13041996080039425,0.4134059625009161,-0.04281326841413776,-0.4739138642048715,-0.938951744381339,0.5620101645029114,-0.562101831152163,-0.29658831095016935,0.14143319961894832,0.2761952161732191,0.08445550833146365,-0.1679956710095257,-0.3254400243044968,-0.49991783533707007,0.5406208057675439,0.46053197355321135,-0.899371686279831,-1.151465090692543,0.39558267241328915,0.4377104361255198,-0.1554569309343462,0.3180546706297635,-1.5307962926767367,-0.9925003822777335,-0.17630581047005373,-0.3373164646804653,0.38699524320421225,-1.0695423034230782,-0.8870516672339662,-1.0378197675041194,-0.1748100360906294,0.20079883983396313,-1.4135222442591975,-0.7421339333265593,-0.42459909360288633,0.9578426059814779,-0.5093239920757936,0.18808309240839544,0.43088653081254397,-0.028633726832789575,0.7483897590975452,0.12246990437799221,0.7263149040610488,0.5223865834003473,0.548809141749391,0.08337974454700679,-0.1645822014657265,-0.19793835164597495,-0.9325688558131618,0.29666584782092265,-0.20007284771564535,-1.007725398183096,-0.7049405874371221,-1.086369728901416,-1.2048271225993379,-1.3515310847008712,-0.06527775050371015,-1.499059928498141,-0.7889521544540272,-1.1584534803669044,0.521644458722947,-0.21736230548473606,0.4603140124944241,-0.1187143066968524,-0.09751375140313165,-0.2155129347105081,0.5701270208244984,0.050346956663268806,-0.9313871870767289,-0.29745541010559606,-0.39068980633728323,-0.9353291672999601,0.8621285993411033,-0.0990323217085554,-0.0015568246820212588,-0.054726183862736116,0.8391047460487439,0.18420100440497,-1.047360187873026,0.713320408535178,-0.5081998532124289,-0.9133570977895081,-0.06388058763901076,-0.1792432088473302,-1.2027422993720787,-1.1322206272791535,-0.20590400130734038,-0.5337280406803651,0.5403836692761331,-0.638951056973874,0.3328615811677752,0.8121025091363404,0.24401340458388304,0.3503297617331044,0.5655123991149119,0.49120800962492067,0.6752347676254565,-0.4898233391327147,0.47568162057401125,-0.5053465697787675,0.6054587671876333,-0.8170585426281749,-0.6696858259391766,-0.20859846330145354,-0.32117327505871973,0.8819939915344116,-0.39330950639127105,0.26863505101325325,-0.47421600718448803,0.19091365350120332,-1.2197269890957179,-0.0736177608740508,0.12063884450563818,-0.9364577279620011,-0.7225312366139025,0.14035308746225789,0.7711768931431849,-0.6316579020383077,1.075543794646377,0.8222739269244322,0.9068092098690786,-0.2752975045270477,-0.10977851845766252,-0.8484439373619237,-0.9930103994211867,-0.5343303933225213,-0.406741650818825,-0.9157205738465134,-0.05174612511002476,0.5975482232264212,-0.2687187507930229,1.0738297729929127,0.4732028603767839,0.42124640401514474,0.8552735475105836,-0.5604519390916641,-1.2026932708495468,-0.718498828377784,0.2719771849461812,0.5063974153528467,-1.0513640846408583,0.6224087601442885,0.7522157424632039,0.799592152119328,0.4704861978240989,1.1084354418139133,0.9347717204761121,0.6672657493845382,-0.2023783657625511,0.7263044114967726,-0.12864604613988387,0.38814065161730266,0.27216995036193853,0.654956663977982,-0.530728856920548,0.6710790242848608,-0.1748005996282121,0.8283329878083824,0.8423513965295321,-0.7256017187183433,1.288474269646378,0.14923372032976706,-0.21104196241757328,0.5647277352757025,0.10516576523201912,-0.5917626773740181,0.7808009961010227,-0.055520013266202456,-0.026376368615824493,0.5445140020898543,0.0008091609887445364,-0.15386855924549125,-0.6628971824260176,0.026537688543241754,-0.3423179110902354,-0.709460484760496,0.12300724697162448,-0.9111438502638218,0.9424517352573392,-0.13601351174608747,-0.03251090642042644,-0.58916526125626,-0.18390018436205158,-0.6459215279151067,-0.24732867062057448,0.14512665020196977,-0.4019323048951617,0.10833813616480176,-0.4965977822611807,0.9189022972466504,-0.10243413887825836,0.5535905699305974,-0.5117124113892716,-0.8274715314370258,0.30656242302313474,-0.20202446890807205,-0.6627357447661769,-0.052975643176483796,0.46062476777323474,-0.4053211779508442,-0.7041981174199494,0.6521598215765965,0.4579887836287807,0.6850717392062624,0.9871651459979137,0.3605960742018858,-0.1543905783827933,0.4765115246574957,0.6328672091169791,0.2625284670612096,0.25300179964711467,-0.28033044992254513,-0.48072759647913477,0.4028012998888417,-0.5385516375905464,-0.14320004364210628,-0.37934815367671354,0.7479769422081064,1.4262278764284477,-0.06173706965132384,0.8747586764408473,1.298380726461037,0.19150123557107576,0.6247900847578842,-0.12365923623873847,0.6274356466461232,0.020820709385433036,-0.015975151866881098,-0.6023832847681609,0.340975494183068,0.8568871979954029,-0.004069737873739746,0.4675384689537665,-0.44434229379548773,-0.6535182981488717,-0.24081896595735827,-0.04005998867222056,-0.8898272666265549,0.09321294422345412,0.23280288109059463,0.03939556474179534,-0.7600678969438796,0.23508916701193688,0.9185602964110199,-0.39445873520462155,0.5720702831500547,1.453034967995037,1.0940290666118004,1.5059411894810382,0.5730559462256349,1.2117597547379129,0.1443382824148135,-0.35648640372399987,-0.04200243667918857,0.908181282314291,-0.001054886765957616,-0.1301333261798711,0.7460220583616162,0.03939831072858899,-0.6726169642086233,0.9493388121530575,-0.22852207211882303,-0.7550414349067457,0.1746852500642734,-0.8055378891999907,-0.9543739751034919,-0.8254914749881451,0.588852410896847,-0.3405151232517086,0.6242110651946368,0.7432030162476527,0.5261069864157826,1.1448831241056825,-0.2702625335121533,-0.3435136846822436,-0.21953725838343144,0.5566350224832115,1.0035976902626944,1.1899697818867836,-0.5034244762107295,-0.026118091955181295,0.37220701621984886,0.5796323529471569,0.18929527960380638,0.26065192464153086,-0.7559491252213706,-0.1638695571458882,0.9070439691892458,-0.22280468233617298,-0.7689491586217151,-0.7610731655674157,0.9240669523720743,-0.6449725110016086,0.3807983418603907,-0.3049327357124265,-0.7979553228581675,0.9404603948144882,-0.15418567839270403,1.1283555553784173,-0.2614352034848146,0.6823188929538958,0.7686314935957633,0.07599435130725422,0.27460391376714494,0.37372984584451885,0.5464114068987509,1.2948864959189286,-0.5798449528826424,0.24812586971183095,-0.3016070208415298,-0.1439048807032016,0.6522102098053397,0.8485292787567813,-0.899742183062071,-0.8391160675132645,-0.11831474384922622,-0.33825189334073097,0.8446853568608388,0.017210774398511482,0.4642863884772137,0.056900499282692515,0.13345053789819047,0.6295541321404255,0.11115813773115875,-0.7623369061771172,-0.23632916793486602,0.15463848665779245,-0.43248527672790177,0.9047089420153903,0.149550857906306,0.8789655882477252,0.6087667390404883,-0.4555981680829471,-0.5976656773198274,0.2590498104433977,0.5082083575434594,0.7993632890752466,0.15976639589138547,0.569387192317303,0.09188931114115015,0.28968802229374935,-0.22520836649789341,-0.07045752503993685,0.654976073777624,-0.9385053806722594,0.6054800670815652,-0.44587278464772034,-0.4035014636040785,-0.1267124156032469,-0.7067210801192363,-0.7170836802527925,0.6553007272043079,-0.7795872314352505,0.5478673275574855,-0.43319315672087955,-0.9973916189928832,-0.01546394521605559,0.014110264664754298,0.366185455612306,0.15329002050080479,-0.2608650619932374,0.8001439224654725,-0.2527170864114054,0.4701406290296837,0.7304381950360828,-1.0438643475414853,0.18884232331327072,-0.5071528886493507,0.8291030653512284,0.3863474321300965,0.7484693843674638,-0.10071217823299052,-0.7231795080843115,-0.9210066308344683,-0.20965710692328857,-0.8321400982584769,0.46382102253754337,-0.11702829456587567,0.9172903313887987,0.06982305884664668,0.07770284755140376,-0.5518228353912721,0.6904233363875408,0.31132668522696816,-0.784188055134921,0.024982961051922062,-1.143978312868229,-0.7192599528081661,0.32415022652290254,-0.49063356667678976,-0.452418672541829,-0.7825586299469026,0.14430623925986946,-0.7517203319620469,0.5125364327761242,-0.12828353131820447,0.5551558751172775,-0.7217824637535383,-0.6478806108179717,0.07412905156784577,-0.4173016302417338,0.41878444171202606,0.8443898840712911,-0.7797061042110255,0.7370707510323793,-0.8812437603483705,0.03632703085102747,0.3375405810061689,-0.2524113034824959,0.6116868067356961,-0.8931206150095825,-0.33807869259656387,-0.15724311303055374,-0.64855158392295,0.6879103877748951,-0.27676627419398553,0.3098681610111065,0.34018300857561184,0.7555385679650257,0.479496493254741,0.32700509130477223,0.7482906983383542,0.23250435153682708,0.5086059041482505,0.33780063721012515,0.5482643076378728,-0.9474544145086395,0.5201082097343463,0.6798663399607054,-0.9302468875613638,-0.4837706350874433,0.17006285629647142,0.9111265953795672,-0.7165254238532974,-0.12022884623304893,-0.5439024899496232,0.5233589070228295,-0.08585270979203458,0.541699864327137,-0.6224702919560446,0.2036565045685145,-0.9817676540676901,-0.6890948806901739,-0.9163272697376154,-0.7164700181457292,-0.11365433461858351,-0.6466679999256945,-0.8068228065800832,-0.25596669495067476,0.6581274682279538,-0.3440753914497032,0.9229371130773898,0.23069931676216246,-0.9906978524135688,0.016684089261040813,0.31753004347912983,0.7277331470511018,-0.2854277360067422,-0.2835196805825264,0.2027997034616634,-0.6371387826481545,0.3537778438355458,0.43495778524312884,0.4933688469637368,-0.059869654712052224,-0.6165891036687633,0.13200897365565348,-0.3488313627217671,-0.9305509239099544,-0.19389392952558823,-0.8721899922328603,0.5319397602904586,0.20120559555643153,0.7310767576853986,-0.17298587928284218,0.36006526022967605,0.8385579200460361,-0.24128013413481955,-0.5953507097776419,-0.8917215595942963,-0.8712050174395847,0.5245792810572535,-0.8590620152486005,-0.5095017343007154,-0.8433410010043967,0.17223576674589636,-0.2522124012633934,-0.009808446406542343,-0.09141920427107156,-0.2967685203597062,-0.4238842294364744,0.960977359684097,-0.6639313031328363,-0.33703885258319466,0.057628269733903045,0.07028992180534344,0.5757617433702045,0.553015520005839,-0.05647557437557552,-0.04596512316774353,0.9606745786978613,-0.4957238465567516,0.7567952754270828,0.8533618266590056,-0.46047035232648403,0.4442679021927567,0.7309114262094536,0.08775493351209307,0.4753186792821723,0.13916371095562802,-0.010783837799263639,0.2203339146600762,0.3282699426787651,-0.9049381843701154,-0.13056940413370244,-0.4429632128625101],[0.7473059513611471,0.36600358266911814,-0.6408796444814386,-0.7549815557670609,-0.0024717197377137285,-0.5009022181012949,-0.3710912462157584,0.17036990523614873,0.013522866798970657,0.9277527430053083,-0.6245290955444803,1.0200440734293066,0.2668465559941687,0.9568031567933813,1.1490879722834126,-0.19676758242313128,1.0633265603546185,-0.4016534006640718,0.4121007940582148,0.5123260568585228,0.22360866469812216,0.7652207127268609,-0.14796258192821996,0.586810930132083,0.4284700868273976,0.2562163033908865,-0.8659382916444982,-0.20641224501789066,-0.2892011005090114,0.7440469389753357,-0.40644467257910544,0.3883190481167714,0.6530792098958236,0.07775697171562698,-0.2746305174999675,-0.18442877762108065,-0.4815409939536085,-0.37817531212610556,0.8076420477457358,0.14313123724364263,0.8580162424368386,-0.22259332033136314,0.726245122713919,0.47090138893537753,0.926012953101989,1.1198094137999166,0.9973725613839084,-0.03203100971099942,-0.7819273504829936,0.03173418110847953,0.44396187698507794,-0.47325888080141476,0.5992792715375914,0.602061662366049,0.5063691986333005,-0.17325275646799682,-0.6033922107496651,-0.16569152313867244,-0.3682654746186214,0.2875967382301,-0.35101275710306296,-0.5152465861009323,-0.7592275742846856,0.5408871791990382,-0.6216770494144743,0.7251424992644772,-0.2987842885300064,0.012791038815256185,-1.0399720149493885,-0.8771185165974953,-0.3469423839099034,-0.8175486962657259,-0.9305103592767655,-0.5885113312364612,0.14308040627933874,0.04899135944786852,-0.08714773998054583,-0.4336012915933177,0.771887639863077,0.7554870761908629,-0.7092316693374,0.4138218772464036,-0.42016936303342406,0.5853136668678924,-0.635575673653162,0.1156055956567865,-0.34138911775418557,-0.3550584595130755,-1.0843602174223246,-0.608002446260522,-0.20224242561076528,-0.6686579582065342,-0.3923963640432285,-0.3961114432836838,-0.6397838841843141,-0.3603613468586107,-0.0915959669312223,-0.28212793224379995,-0.0739131091400712,-0.4479578377359697,0.35462831248146187,-0.6969234276855433,0.22876850326353218,-0.5233407313561719,0.670672514442834,0.9687388986944907,-0.04263257859181543,-0.6526397201262654,-0.46322687287549935,-0.25124962523295485,-0.8754705405602948,-0.592244638554613,-0.11295279245022759,-0.46083233941871604,-0.4302958657339809,-0.09965880705388881,0.4714186713100156,0.10481515352133881,-0.07871158446591135,-0.5290474668426761,-0.5399241770038269,-0.3225418062081545,-0.47670980511225036,-0.6210632092068479,-0.4471216080349634,-1.0841747167604345,-1.8803296254870723,-0.06525895635828786,-0.9391497222907433,-0.37286733677855793,-0.026529114976421384,-0.8244085948714849,0.5597336942640676,0.08775120390938233,-0.3185762391072622,0.4663460239772049,-0.6781255535217132,0.015351955736521341,0.3735782682999673,-0.6898348209035507,0.7768469584045685,-0.5592492235957446,0.08830777749697931,0.5078186536769808,0.3427308473582257,-1.3124634397782546,-1.0213072890593975,-0.85036104786888,-0.1638082916014605,0.10216624400678456,-0.08720181177318734,-0.20010754579085654,-1.0576697286884327,-0.9907535270027231,-0.5591190753076308,-0.18297408511369911,-0.9079476714248266,0.09122502147145338,-0.16601246554201957,0.7016525300528773,-0.35680527251744354,-0.6918492240628656,-0.8603804810056666,0.04532086628447376,-0.8883887062463893,-0.5810987633608138,-0.5539199505202129,0.09548671957941784,-0.46680767458443057,-0.06361830831516872,0.07149405451502351,-0.19372625620555875,-0.5804358486979763,-0.32105889263586435,-0.3805180411336352,-1.0431572506727118,-1.0963261118504666,-1.197384969282567,-1.0424337191424593,-0.14593508603942662,-0.13728001219401334,-1.207481327225352,-0.018092568720818665,-1.074876467726963,0.06258399440899802,0.4990445169928972,-0.7139627022638714,-0.677692109892399,0.9309841354472121,0.1662901772270732,-0.7408704391718199,-0.3886769214582472,-0.41476372857135113,0.615749421003638,-0.34000936323372793,0.11262551409469362,0.41821334194542625,-0.5232437481099625,0.040215125088344524,-0.38038848171287715,-0.3504818522745219,-1.228064660269025,-1.0885291033956872,0.2799062154903694,0.3959737591085034,0.260632571920356,-1.294284603283525,-0.40158013032899814,-0.3229971832809979,-0.8007003806790994,-1.019790833384,-0.6114615182447634,0.829533850141862,0.21325323336432028,-0.033893009298339445,-0.47859402252494976,-0.6454462628002212,0.3498655981605363,0.09169111118872406,-0.3618597303681635,0.023442245182347898,-0.45942114821444724,-0.6239484826623763,0.49375697738385144,-0.7383501845134719,0.9025308456757418,-0.3109778147882271,-0.26789342167556945,0.6385852602551484,-0.15009606878764023,-0.42719063712488115,0.05469045547276019,-0.4414472664928028,0.060361452791254426,0.15701615659240245,-0.7216603702367946,0.17588591456420424,-0.011495042181042768,0.41118791549998635,0.30144907550445615,0.37946493546064486,0.14763296447394955,0.7607177646139285,0.21276208095690965,-0.6476200561045699,0.5899115187012158,0.35674124107253785,-0.26764442036209113,0.2254169978085835,-0.7849678231542002,-0.2053368814734183,0.04550691486694336,0.038751691872304914,0.8057066973069744,0.20048356684128524,-0.08209793185715604,-0.44056186714917983,-0.7971715753999954,0.7322223003292591,-1.035283594806718,-0.5645787796018391,-0.09358772757336925,0.0896807422076874,1.512704297305992,1.20732062252111,0.947061575819141,0.21021239818715814,-1.1738195253247719,-0.2822037872449412,0.35323444672151993,-0.1924345936642947,-0.03826103478498679,0.2938972257985802,0.6553752774319215,-0.6889973574649808,-0.2604092174891508,-0.5074717699229595,0.4896230308933673,0.4864576712579003,0.40597027783292583,0.6772125430362886,-0.9482289122219137,-0.538615126258318,0.5002527350482011,0.6957520356164052,-0.8177113420422968,-0.5259312983065143,0.21750579840823048,-0.3635357238464146,0.9334206764422812,0.11117564605495471,-0.36395403058875586,-0.32375830723783294,0.2449435080149523,-0.714783378059462,-1.0936721971911587,-1.2601156099593145,0.2263939042997832,-0.3190151005239771,0.6224734781937942,-0.4172127962120387,0.30572014092465083,-0.49358615246765564,0.018273904664852878,-0.8859333943037603,0.7321690227522538,-0.5200452938698169,-0.4595787902324799,0.8632564612932034,-0.23142067279181452,0.05935523342347233,0.40618201279735533,0.7683372485675857,0.18181332714763135,0.11291819292805,-0.11847363799038312,0.1604256431163271,-0.5650653799871846,-0.07379307430436967,0.1270803142108698,0.17560947259293427,-0.4643825391020083,0.04147607964871911,-1.02313480147261,0.27603250315703687,0.4326678866293191,0.5046317333560028,1.0834793546686259,-0.15150775407204378,0.8988411106102107,-0.7863546586367165,-0.7888863114262614,0.0754470256567588,0.07004431904282973,-0.648884839747937,0.768303037441012,-0.6304868619604399,